%YAML:1.0
---
opencv_ml_svm:
   format: 3
   svmType: C_SVC
   kernel:
      type: RBF
      gamma: 5.3830000000000000e+00
   C: 2.6699999999999999e+00
   term_criteria: { epsilon:1.1920928955078125e-07, iterations:1000 }
   var_count: 128
   class_count: 2
   class_labels: !!opencv-matrix
      rows: 2
      cols: 1
      dt: i
      data: [ 0, 1 ]
   sv_total: 246
   support_vectors:
      - [ 8.24458525e-02, 1.28347248e-01, 8.28124061e-02, 1.19123749e-01,
          1.52858362e-01, 1.20453656e-01, 1.43962443e-01, 1.24773577e-01,
          1.26197353e-01, 1.42637238e-01, 9.67138484e-02, 8.12791511e-02,
          7.30547607e-02, 9.97898132e-02, 1.09803200e-01, 1.37240961e-01,
          1.67812273e-01, 9.90630239e-02, 9.58608240e-02, 1.24568082e-01,
          1.16121337e-01, 1.57592312e-01, 6.70931116e-02, 6.35344535e-02,
          6.16655163e-02, 6.17659315e-02, 4.19305377e-02, 4.91198413e-02,
          7.14782029e-02, 4.76815179e-02, 5.76325022e-02, 6.94439486e-02,
          4.12911847e-02, 2.95465067e-02, 3.17398496e-02, 4.82336357e-02,
          5.55831864e-02, 9.75523740e-02, 7.19359443e-02, 4.94199842e-02,
          6.34924769e-02, 4.47273254e-02, 5.79632670e-02, 4.55947295e-02,
          4.24958132e-02, 5.00614867e-02, 7.91824386e-02, 1.11612812e-01,
          1.33092761e-01, 8.20429176e-02, 7.17614889e-02, 1.12057082e-01,
          9.94763300e-02, 7.44689107e-02, 9.30369124e-02, 7.19701946e-02,
          8.86379331e-02, 6.10822551e-02, 6.44504353e-02, 5.41150086e-02,
          7.70805627e-02, 8.53653252e-02, 8.01542476e-02, 3.51856835e-02,
          9.09124762e-02, 6.59232661e-02, 6.12110123e-02, 6.33894354e-02,
          8.92826691e-02, 7.85296187e-02, 1.03462584e-01, 5.36355115e-02,
          1.22399531e-01, 1.23881586e-01, 1.02467485e-01, 1.02350235e-01,
          1.44595578e-01, 1.35852322e-01, 1.61762506e-01, 1.21746771e-01,
          1.05439089e-01, 8.40881839e-02, 7.31002241e-02, 7.01465234e-02,
          8.80082399e-02, 5.45038283e-02, 7.15622827e-02, 5.48287109e-02,
          6.38879985e-02, 5.92956096e-02, 6.38743415e-02, 1.16626672e-01,
          9.12809521e-02, 1.05174564e-01, 1.16782449e-01, 1.01588748e-01,
          4.88035716e-02, 3.68819013e-02, 4.23772559e-02, 1.69527717e-02,
          3.38726342e-02, 3.53268720e-02, 4.94434088e-02, 7.25583434e-02,
          9.37886089e-02, 6.61828220e-02, 7.87162930e-02, 9.04123858e-02,
          8.44758525e-02, 7.76371509e-02, 6.37731478e-02, 5.79671264e-02,
          1.17820576e-01, 9.16505679e-02, 9.00686234e-02, 1.09301634e-01,
          1.29771173e-01, 1.59370214e-01, 1.21559657e-01, 6.11744188e-02,
          7.10947141e-02, 3.13517004e-02, 3.94186378e-02, 2.82243211e-02,
          3.53281870e-02, 0., 1.72733217e-02, 4.27300930e-02 ]
      - [ 1.03566416e-01, 4.76549529e-02, 2.76882928e-02, 8.06996971e-02,
          9.71457064e-02, 1.07624419e-01, 1.02699623e-01, 1.28155559e-01,
          1.66900322e-01, 1.67805731e-01, 9.60782915e-02, 6.53824881e-02,
          6.97586909e-02, 7.03783780e-02, 6.94837496e-02, 1.24730542e-01,
          1.79608077e-01, 1.60587192e-01, 1.33713141e-01, 1.30918935e-01,
          1.25698850e-01, 1.17389344e-01, 1.46807909e-01, 1.45354345e-01,
          6.87126219e-02, 6.55424595e-02, 7.39960000e-02, 7.13483915e-02,
          5.87334000e-02, 9.27340314e-02, 4.85117361e-02, 7.11190552e-02,
          2.37299129e-02, 0., 1.91972610e-02, 3.30226868e-02,
          2.76374556e-02, 1.10745737e-02, 3.25188227e-02, 4.29190472e-02,
          8.59014690e-02, 1.26847073e-01, 1.37322798e-01, 1.10645346e-01,
          1.15173526e-01, 1.55352503e-01, 1.00399792e-01, 1.02473900e-01,
          1.38962626e-01, 1.13816485e-01, 8.48190412e-02, 6.21810071e-02,
          8.38371590e-02, 1.25289276e-01, 9.90806594e-02, 8.59693661e-02,
          7.09854737e-02, 6.75395206e-02, 6.00495599e-02, 3.42080593e-02,
          3.27501595e-02, 2.90964395e-02, 2.88816616e-02, 1.74574945e-02,
          6.12493306e-02, 5.85569665e-02, 7.28155598e-02, 4.67930660e-02,
          6.89017102e-02, 6.43949285e-02, 9.39591825e-02, 8.70808065e-02,
          1.36076942e-01, 1.34352461e-01, 1.11238465e-01, 9.87483039e-02,
          8.96872059e-02, 5.36715873e-02, 4.26708236e-02, 3.71438786e-02,
          8.44178796e-02, 7.64276162e-02, 6.56099245e-02, 7.18080625e-02,
          7.42695555e-02, 1.16349272e-01, 1.43362895e-01, 1.39099568e-01,
          1.66948631e-01, 1.23262972e-01, 8.20959806e-02, 4.80790399e-02,
          4.89226729e-02, 2.72624232e-02, 2.85822209e-02, 2.52487808e-02,
          9.09797251e-02, 7.38237202e-02, 7.14627355e-02, 5.48023619e-02,
          4.16650251e-02, 4.44057919e-02, 4.21803966e-02, 4.34191711e-02,
          3.19473110e-02, 3.57993878e-02, 1.85910556e-02, 1.51908575e-02,
          3.94709073e-02, 4.45267111e-02, 4.00099754e-02, 5.37074059e-02,
          1.44857064e-01, 1.46703765e-01, 1.51089162e-01, 1.17970578e-01,
          8.75065997e-02, 6.85217306e-02, 4.27269973e-02, 2.41831187e-02,
          4.90812063e-02, 2.38184351e-02, 4.30759080e-02, 5.91243543e-02,
          6.87418357e-02, 6.91126511e-02, 5.75909950e-02, 4.92282510e-02 ]
      - [ 1.41423702e-01, 5.44459112e-02, 5.27381562e-02, 6.17623180e-02,
          3.37996520e-02, 4.11566012e-02, 6.49872795e-02, 5.36006130e-02,
          7.95055553e-02, 1.19901270e-01, 1.49408698e-01, 9.77195203e-02,
          1.27751336e-01, 1.53950617e-01, 9.39452723e-02, 1.29550755e-01,
          1.54882923e-01, 1.66452453e-01, 1.45785421e-01, 5.46156131e-02,
          5.60241677e-02, 1.12777174e-01, 6.69538826e-02, 7.99856856e-02,
          9.18111652e-02, 9.71750915e-02, 7.77557492e-02, 1.53363198e-01,
          1.43622324e-01, 8.45139995e-02, 7.49970153e-02, 3.01451515e-02,
          8.13976601e-02, 5.05849831e-02, 5.63908629e-02, 6.35300055e-02,
          4.77477573e-02, 2.47160308e-02, 3.90384831e-02, 6.12104386e-02,
          6.64047375e-02, 9.30528268e-02, 1.03542686e-01, 9.76614207e-02,
          7.54968002e-02, 7.90120587e-02, 1.16141811e-01, 1.28080532e-01,
          1.62631944e-01, 1.51045665e-01, 9.27954912e-02, 8.58869776e-02,
          9.73282307e-02, 8.18110555e-02, 8.75897706e-02, 8.60144347e-02,
          1.30692586e-01, 3.25315036e-02, 5.41869402e-02, 3.75327021e-02,
          6.97356239e-02, 4.83484827e-02, 6.37949407e-02, 9.00785327e-02,
          4.04370576e-03, 2.89534982e-02, 4.18761112e-02, 2.67774593e-02,
          6.40301108e-02, 7.93163255e-02, 9.30953920e-02, 1.40595749e-01,
          1.73476681e-01, 1.31117791e-01, 1.13133997e-01, 5.55507317e-02,
          3.10577806e-02, 3.60367745e-02, 3.56762409e-02, 1.76866893e-02,
          8.41209069e-02, 1.00251451e-01, 9.44894478e-02, 6.96772262e-02,
          6.21158257e-02, 1.00229882e-01, 8.01592395e-02, 1.61302388e-01,
          2.39158705e-01, 1.26482606e-01, 4.32535410e-02, 0.,
          2.18900982e-02, 3.48266996e-02, 1.83331128e-02, 2.53560673e-02,
          9.18717533e-02, 7.80237392e-02, 6.47975430e-02, 4.53461148e-02,
          3.92234698e-02, 4.70866188e-02, 5.32059446e-02, 4.43866588e-02,
          3.21568511e-02, 3.34796086e-02, 5.19321300e-02, 1.18600754e-02,
          2.91669201e-02, 2.87956614e-02, 4.26124297e-02, 5.71952350e-02,
          1.58715010e-01, 1.65292516e-01, 1.04725711e-01, 7.62049183e-02,
          3.57821509e-02, 4.12365980e-02, 3.88611481e-02, 1.18800588e-02,
          4.60256115e-02, 4.13809568e-02, 4.51797731e-02, 5.71263097e-02,
          6.00830056e-02, 1.00702353e-01, 9.34922546e-02, 9.48858410e-02 ]
      - [ 1.01653755e-01, 9.49869230e-02, 8.19310471e-02, 7.89960846e-02,
          9.13640335e-02, 6.13397695e-02, 1.09654590e-01, 1.05775401e-01,
          1.69340745e-01, 1.58870846e-01, 1.24399446e-01, 1.04437850e-01,
          8.79856646e-02, 8.63791704e-02, 9.29955915e-02, 8.23026821e-02,
          1.34920925e-01, 8.25678930e-02, 8.95051435e-02, 9.06556696e-02,
          8.33104327e-02, 1.05600655e-01, 9.76664051e-02, 8.48894939e-02,
          1.40236363e-01, 1.04799800e-01, 7.53355846e-02, 4.60924469e-02,
          2.74197217e-02, 5.61496429e-02, 6.48377314e-02, 2.91196126e-02,
          7.57039040e-02, 2.90370733e-02, 2.41620373e-02, 2.08977237e-02,
          1.21263983e-02, 1.81418546e-02, 6.57140985e-02, 6.00998960e-02,
          8.31582099e-02, 7.88704902e-02, 4.79632206e-02, 3.26497592e-02,
          1.04315557e-01, 1.05609596e-01, 1.03514306e-01, 1.01413861e-01,
          1.11515135e-01, 7.72161409e-02, 5.66731356e-02, 5.96517734e-02,
          9.83853713e-02, 1.23563789e-01, 5.33759110e-02, 5.78415133e-02,
          9.23656076e-02, 8.09391737e-02, 8.99356455e-02, 4.71874699e-02,
          4.42901738e-02, 6.75800070e-02, 7.68045336e-02, 6.71115145e-02,
          1.08351268e-01, 7.54694864e-02, 5.99334277e-02, 6.23837560e-02,
          6.32378608e-02, 8.93619359e-02, 1.02231629e-01, 7.90550262e-02,
          1.00363284e-01, 1.12139575e-01, 8.58840495e-02, 7.52459317e-02,
          8.06963220e-02, 1.10298470e-01, 1.60627887e-01, 1.86222062e-01,
          1.81573361e-01, 1.13250323e-01, 8.85483474e-02, 9.33240429e-02,
          1.29628554e-01, 1.07523635e-01, 1.01582192e-01, 6.59062415e-02,
          6.78183436e-02, 5.36609404e-02, 3.56677361e-02, 4.07374911e-02,
          5.27519621e-02, 8.95616114e-02, 7.39332661e-02, 7.37727582e-02,
          6.03194311e-02, 4.79849242e-02, 4.24417742e-02, 4.02938314e-02,
          5.25685735e-02, 1.78987179e-02, 7.01316968e-02, 6.73569068e-02,
          1.07360438e-01, 9.65636075e-02, 7.36228824e-02, 6.83111921e-02,
          6.95703179e-02, 8.04211050e-02, 8.45798403e-02, 7.30910301e-02,
          1.35560587e-01, 1.55945763e-01, 1.46280751e-01, 1.57661110e-01,
          1.07595883e-01, 9.80292559e-02, 8.22234899e-02, 5.32255694e-02,
          6.05488718e-02, 5.37209138e-02, 3.84957790e-02, 3.22238617e-02,
          6.55684695e-02, 5.26973754e-02, 3.90608124e-02, 6.14577383e-02 ]
      - [ 7.34504387e-02, 4.66888286e-02, 1.08888529e-01, 7.60309398e-02,
          7.18396604e-02, 8.62407461e-02, 8.16740692e-02, 1.00908481e-01,
          1.52098656e-01, 1.42422453e-01, 1.04242429e-01, 9.45328102e-02,
          8.76479521e-02, 8.04038942e-02, 9.41440910e-02, 1.17027350e-01,
          1.57173619e-01, 1.40246883e-01, 1.25837758e-01, 1.00855775e-01,
          1.23300821e-01, 1.54931754e-01, 1.24083929e-01, 8.10914040e-02,
          8.66342485e-02, 1.04479685e-01, 9.10889208e-02, 5.53374775e-02,
          3.25118080e-02, 5.55530563e-02, 6.17184192e-02, 7.44237006e-02,
          5.58872744e-02, 4.69811726e-03, 4.67487276e-02, 3.82290147e-02,
          3.73333767e-02, 6.55506626e-02, 7.46041164e-02, 8.35798681e-02,
          8.26518759e-02, 1.30769014e-01, 1.37242734e-01, 1.01194724e-01,
          1.19233370e-01, 1.02325231e-01, 9.82486308e-02, 5.66922128e-02,
          9.33817402e-02, 8.44553113e-02, 8.97236690e-02, 4.05455306e-02,
          5.61968461e-02, 9.02342275e-02, 7.74411559e-02, 3.55403051e-02,
          7.87717104e-02, 6.29124194e-02, 7.11148009e-02, 7.03344867e-02,
          6.96891472e-02, 9.11001191e-02, 8.87944847e-02, 6.84908852e-02,
          9.08058807e-02, 8.20003971e-02, 8.69172290e-02, 1.00709409e-01,
          7.29707778e-02, 7.91886076e-02, 1.30662635e-01, 1.60498649e-01,
          1.53557792e-01, 1.09290354e-01, 1.00994274e-01, 8.01703185e-02,
          6.41233996e-02, 5.05770221e-02, 5.45752682e-02, 6.40821606e-02,
          1.19508222e-01, 7.36768693e-02, 4.94721979e-02, 3.98525745e-02,
          4.60212007e-02, 8.98290202e-02, 8.55816305e-02, 1.35195553e-01,
          8.32233652e-02, 6.13330975e-02, 7.26183876e-02, 5.67070469e-02,
          1.00475237e-01, 8.74685794e-02, 8.05565715e-02, 6.37944713e-02,
          9.16656628e-02, 8.53208229e-02, 6.09453805e-02, 7.24245906e-02,
          7.98667297e-02, 9.09243748e-02, 9.45771337e-02, 6.98214024e-02,
          6.57851920e-02, 7.00060502e-02, 6.21695034e-02, 6.24635853e-02,
          5.60356677e-02, 6.52808473e-02, 1.09625489e-01, 9.96843949e-02,
          1.26355767e-01, 9.47980583e-02, 9.35650468e-02, 7.11522251e-02,
          1.05960637e-01, 9.20282230e-02, 6.30728528e-02, 7.23798946e-02,
          8.49966854e-02, 1.01319425e-01, 1.60231069e-02, 5.59830852e-02,
          6.36685938e-02, 6.88152239e-02, 5.87379038e-02, 6.85126707e-02 ]
      - [ 6.06087111e-02, 8.49607885e-02, 7.23142475e-02, 7.49615803e-02,
          8.37817341e-02, 9.65402797e-02, 1.18794955e-01, 7.65727311e-02,
          1.42616197e-01, 1.89984500e-01, 1.39507696e-01, 1.13581993e-01,
          1.02964200e-01, 6.68465644e-02, 6.06554002e-02, 3.81651893e-02,
          1.16939172e-01, 7.35358223e-02, 4.48630862e-02, 6.62360117e-02,
          1.10096484e-01, 1.31743208e-01, 1.06947087e-01, 1.00790665e-01,
          1.03038438e-01, 9.45010558e-02, 6.94994256e-02, 3.48424166e-02,
          1.62680577e-02, 3.76106240e-02, 4.46793064e-02, 3.24362516e-02,
          4.20912877e-02, 1.99544355e-02, 3.49097885e-02, 3.88698950e-02,
          4.55641076e-02, 4.33704257e-02, 4.07116823e-02, 6.44934699e-02,
          9.06512514e-02, 1.16273910e-01, 7.17333332e-02, 8.84947404e-02,
          8.16937461e-02, 8.23163018e-02, 8.09261501e-02, 1.02086835e-01,
          1.27311662e-01, 1.01084933e-01, 7.35035762e-02, 4.56504337e-02,
          4.72248718e-02, 7.41511583e-02, 1.40673175e-01, 9.67659727e-02,
          7.02524707e-02, 1.07366420e-01, 1.05756022e-01, 2.54840199e-02,
          2.36700326e-02, 2.09116731e-02, 1.37379030e-02, 1.19219981e-02,
          2.05995306e-01, 1.01308994e-01, 7.51715451e-02, 7.33524412e-02,
          7.87894651e-02, 6.82289898e-02, 6.63656369e-02, 7.26086199e-02,
          1.03879966e-01, 5.51925264e-02, 6.38088509e-02, 4.39293794e-02,
          4.68419604e-02, 7.14580864e-02, 2.10442498e-01, 1.85363859e-01,
          1.34704962e-01, 6.90447986e-02, 7.62764215e-02, 7.29025453e-02,
          1.22580044e-01, 9.95968357e-02, 1.11697510e-01, 1.07367560e-01,
          7.56876320e-02, 4.35453169e-02, 3.33717652e-02, 4.98181097e-02,
          2.28076987e-02, 4.18566689e-02, 4.61758971e-02, 5.40948696e-02,
          1.64244264e-01, 2.18857616e-01, 1.78628474e-01, 6.38679564e-02,
          3.50778475e-02, 4.00818922e-02, 4.61883135e-02, 4.51525785e-02,
          4.50291522e-02, 8.71111378e-02, 8.16081092e-02, 8.68286714e-02,
          7.82093257e-02, 8.61753970e-02, 7.18385801e-02, 8.43189061e-02,
          1.23999186e-01, 1.15301080e-01, 9.87829268e-02, 8.84784833e-02,
          9.48722139e-02, 1.07320271e-01, 6.34114444e-02, 4.59539779e-02,
          4.26901244e-02, 2.65887268e-02, 1.47826355e-02, 2.94702258e-02,
          3.65615971e-02, 2.43279766e-02, 6.83279485e-02, 6.01551794e-02 ]
      - [ 9.97852832e-02, 7.82487392e-02, 8.87324810e-02, 7.51325712e-02,
          8.13983306e-02, 9.88659188e-02, 1.10626325e-01, 9.38963965e-02,
          1.20606378e-01, 1.84427619e-01, 1.25074461e-01, 1.00718439e-01,
          7.35039636e-02, 8.95804837e-02, 8.34094584e-02, 8.95578712e-02,
          1.09938502e-01, 9.39210206e-02, 7.64178038e-02, 9.28898454e-02,
          9.37974975e-02, 1.16529442e-01, 1.09045900e-01, 9.00427550e-02,
          1.33693591e-01, 1.01512089e-01, 1.18972354e-01, 5.82156926e-02,
          5.52646145e-02, 5.05283363e-02, 4.19480950e-02, 6.01220354e-02,
          2.78515425e-02, 2.31793597e-02, 2.26031002e-02, 2.51678601e-02,
          2.75308415e-02, 3.17752436e-02, 5.07976338e-02, 6.37497157e-02,
          9.04621929e-02, 9.39965621e-02, 5.40484637e-02, 6.74814135e-02,
          4.27444950e-02, 1.04997918e-01, 9.71738175e-02, 9.47605669e-02,
          1.26106933e-01, 8.61855820e-02, 7.53939152e-02, 8.56453627e-02,
          9.51526091e-02, 1.15967184e-01, 8.24437737e-02, 4.04395834e-02,
          4.99548838e-02, 5.68278730e-02, 7.28260800e-02, 5.41596375e-02,
          2.98536979e-02, 3.03005688e-02, 2.25445982e-02, 1.92691963e-02,
          7.67525733e-02, 6.19439930e-02, 5.27708530e-02, 5.56963272e-02,
          5.34855425e-02, 8.92721042e-02, 8.89289379e-02, 5.93090132e-02,
          7.29435384e-02, 9.65003446e-02, 7.65536949e-02, 9.11130682e-02,
          6.89054728e-02, 8.72607976e-02, 1.45175219e-01, 1.97114617e-01,
          1.73289597e-01, 1.01888441e-01, 8.24427828e-02, 1.01133592e-01,
          1.27322793e-01, 1.23175718e-01, 1.36436209e-01, 1.34507865e-01,
          8.02087188e-02, 7.47941583e-02, 4.45179753e-02, 5.02093881e-02,
          3.94685082e-02, 7.21814483e-02, 6.41900077e-02, 8.53573605e-02,
          1.85295284e-01, 1.32464185e-01, 1.15636483e-01, 4.10799272e-02,
          1.92292333e-02, 2.35909354e-02, 5.20657822e-02, 4.65894528e-02,
          9.25485343e-02, 9.15978178e-02, 6.86490834e-02, 7.86105245e-02,
          8.41870755e-02, 6.42312542e-02, 7.88823590e-02, 8.50736126e-02,
          1.43779427e-01, 1.75158083e-01, 1.40681103e-01, 1.19329490e-01,
          7.36347213e-02, 6.36322722e-02, 4.18724716e-02, 3.54809165e-02,
          4.34173755e-02, 3.62778753e-02, 3.43934707e-02, 3.90257575e-02,
          5.67205139e-02, 7.80252069e-02, 7.08772615e-02, 5.10406122e-02 ]
      - [ 8.44767764e-02, 5.32452166e-02, 7.06357360e-02, 8.25935230e-02,
          8.62533450e-02, 1.35008156e-01, 1.04076415e-01, 1.10006869e-01,
          1.40961349e-01, 1.22005187e-01, 1.52668595e-01, 1.36935741e-01,
          9.45746675e-02, 8.42712671e-02, 7.48299733e-02, 5.59118018e-02,
          8.14445317e-02, 7.31923655e-02, 6.67374954e-02, 8.84252563e-02,
          1.45922214e-01, 1.53398350e-01, 8.18385482e-02, 1.30573168e-01,
          1.28733262e-01, 8.66896734e-02, 5.54701537e-02, 5.64083755e-02,
          3.88067700e-02, 4.43102121e-02, 6.92203268e-02, 7.37017542e-02,
          3.48827206e-02, 8.59437045e-03, 8.63539428e-03, 2.07516588e-02,
          2.22377814e-02, 2.74783447e-02, 3.93083543e-02, 7.42766559e-02,
          8.55040178e-02, 1.14560150e-01, 9.54167023e-02, 8.40873644e-02,
          8.53329822e-02, 8.80948976e-02, 1.13632619e-01, 9.29655805e-02,
          1.20144732e-01, 1.05312042e-01, 9.87184644e-02, 5.78689165e-02,
          5.86435720e-02, 8.15578103e-02, 1.41018450e-01, 7.13170543e-02,
          9.42922756e-02, 9.98283848e-02, 6.31167069e-02, 0.,
          1.19750472e-02, 7.22697517e-03, 1.37212956e-02, 8.09858553e-03,
          4.22759540e-02, 5.94329983e-02, 4.63518277e-02, 5.17766215e-02,
          6.42515793e-02, 5.68808205e-02, 5.72106019e-02, 8.49196911e-02,
          8.83915275e-02, 8.20012167e-02, 6.53764382e-02, 7.13666379e-02,
          5.81880920e-02, 8.44619274e-02, 1.38814420e-01, 2.21298888e-01,
          1.46475971e-01, 9.87061635e-02, 9.57407057e-02, 9.91815701e-02,
          1.02614246e-01, 1.15964912e-01, 1.20143563e-01, 1.39909863e-01,
          7.89859816e-02, 5.14558740e-02, 2.18282081e-02, 2.34079268e-02,
          3.60847414e-02, 2.43079625e-02, 3.26370224e-02, 4.22086865e-02,
          1.79790631e-01, 2.21520707e-01, 1.40281528e-01, 1.15839362e-01,
          3.26337181e-02, 2.36234758e-02, 2.51887143e-02, 2.73352787e-02,
          6.40998781e-02, 7.59264827e-02, 8.51634443e-02, 7.50126243e-02,
          8.41897577e-02, 9.68463570e-02, 8.73150751e-02, 8.07404369e-02,
          1.17258251e-01, 1.40574709e-01, 9.77728218e-02, 8.99311379e-02,
          6.11756481e-02, 8.04726258e-02, 7.39042610e-02, 4.99892905e-02,
          2.85423715e-02, 4.86229248e-02, 5.12888320e-02, 4.15510051e-02,
          3.58771048e-02, 3.98156457e-02, 5.18371016e-02, 6.38205782e-02 ]
      - [ 5.63757941e-02, 7.06350431e-02, 6.16736114e-02, 8.57059434e-02,
          7.15350658e-02, 8.47988352e-02, 1.10764980e-01, 1.13085829e-01,
          1.62384018e-01, 1.53164625e-01, 1.67295456e-01, 1.29076004e-01,
          1.07889302e-01, 8.28348175e-02, 7.48105794e-02, 6.61066398e-02,
          1.12229243e-01, 5.56020141e-02, 8.10976997e-02, 9.52102318e-02,
          1.25254974e-01, 1.62052065e-01, 1.08436406e-01, 9.30171832e-02,
          1.01658918e-01, 8.15599263e-02, 2.42525339e-02, 5.64544089e-02,
          2.26516165e-02, 4.37520817e-02, 5.02285101e-02, 7.61611834e-02,
          4.30813357e-02, 1.85364541e-02, 2.34426670e-02, 3.11388113e-02,
          3.39530036e-02, 3.04886755e-02, 5.20679839e-02, 8.89643356e-02,
          8.45125467e-02, 5.84276505e-02, 4.96642999e-02, 5.69124520e-02,
          6.18302040e-02, 8.67331699e-02, 9.89556834e-02, 1.01393759e-01,
          1.15798250e-01, 7.46122226e-02, 4.65400107e-02, 4.96566296e-02,
          6.46092892e-02, 6.73327371e-02, 1.05834343e-01, 1.04645103e-01,
          1.53597891e-01, 8.15626308e-02, 4.20857891e-02, 3.10929194e-02,
          7.98408408e-03, 2.16208920e-02, 2.04577446e-02, 1.48012741e-02,
          7.55954310e-02, 6.15466498e-02, 7.40428865e-02, 7.93903247e-02,
          6.34084195e-02, 8.94979239e-02, 7.19420537e-02, 7.35737756e-02,
          8.08002129e-02, 1.01763450e-01, 8.08627009e-02, 8.73650461e-02,
          1.05608992e-01, 1.71158224e-01, 1.68884709e-01, 1.18612505e-01,
          1.15233779e-01, 9.34904739e-02, 8.42014849e-02, 1.22350894e-01,
          1.00450471e-01, 9.54607427e-02, 1.22800305e-01, 1.42959267e-01,
          1.15635172e-01, 6.61885813e-02, 2.69793328e-02, 5.20707518e-02,
          4.82076444e-02, 5.26768006e-02, 4.51425724e-02, 7.67278373e-02,
          1.14021793e-01, 1.38700947e-01, 1.48556650e-01, 1.10810921e-01,
          0., 3.87867205e-02, 3.69678587e-02, 5.76620400e-02,
          9.01157185e-02, 9.26044732e-02, 9.16591808e-02, 7.97003508e-02,
          1.14726201e-01, 1.08256862e-01, 8.56761038e-02, 1.04548953e-01,
          1.24386296e-01, 1.09005943e-01, 1.21807374e-01, 1.16259150e-01,
          9.34164077e-02, 1.20834842e-01, 9.60284397e-02, 4.82254773e-02,
          2.70389542e-02, 2.49676425e-02, 2.01878436e-02, 2.24688314e-02,
          3.83104347e-02, 3.79011147e-02, 5.73946349e-02, 7.06738308e-02 ]
      - [ 1.42448664e-01, 6.37071133e-02, 2.33884007e-02, 5.99292442e-02,
          4.71826307e-02, 1.58968158e-02, 5.10233417e-02, 7.91680664e-02,
          6.66332468e-02, 1.29058555e-01, 1.54779240e-01, 1.01633385e-01,
          1.47593796e-01, 1.11306742e-01, 1.12049922e-01, 1.14308603e-01,
          1.57185048e-01, 1.43476263e-01, 1.69680670e-01, 5.78186661e-02,
          6.29054680e-02, 1.19900525e-01, 8.89208689e-02, 4.20725234e-02,
          9.04566273e-02, 8.69739428e-02, 7.85580575e-02, 1.56561628e-01,
          1.29679203e-01, 5.44282570e-02, 8.09663311e-02, 5.39850183e-02,
          6.92165717e-02, 5.51807955e-02, 5.85791618e-02, 6.58093691e-02,
          4.64588590e-02, 3.96550260e-02, 2.15016659e-02, 3.97543013e-02,
          8.76617953e-02, 8.76481757e-02, 1.22502267e-01, 9.71449167e-02,
          9.88238901e-02, 9.31680426e-02, 1.16514191e-01, 1.19660050e-01,
          1.49391189e-01, 1.47367239e-01, 8.59228820e-02, 8.87509286e-02,
          1.07938424e-01, 1.00704759e-01, 5.85978888e-02, 9.30593312e-02,
          1.32168174e-01, 5.33479713e-02, 4.37024347e-02, 4.85439189e-02,
          6.48121461e-02, 2.39866562e-02, 6.34697229e-02, 7.58972168e-02,
          1.74350291e-02, 3.15614454e-02, 4.65075038e-02, 3.50896940e-02,
          4.98518795e-02, 7.34925121e-02, 1.02011934e-01, 1.62139297e-01,
          1.65149301e-01, 1.52741462e-01, 1.04318380e-01, 4.07345220e-02,
          3.83383445e-02, 2.86592394e-02, 3.99469621e-02, 3.68758626e-02,
          8.15479532e-02, 9.17968377e-02, 5.70288040e-02, 6.33119643e-02,
          6.66291937e-02, 8.02346319e-02, 1.01793587e-01, 1.82803601e-01,
          2.29121223e-01, 1.25087783e-01, 4.56370227e-02, 3.09707094e-02,
          2.12317146e-02, 2.14473773e-02, 1.80806741e-02, 2.59147268e-02,
          1.01667650e-01, 7.08142444e-02, 6.72705173e-02, 7.55599663e-02,
          5.35868630e-02, 5.13798445e-02, 4.56166901e-02, 3.08275744e-02,
          3.17270756e-02, 2.99962442e-02, 1.62346512e-02, 1.22538535e-02,
          3.79005782e-02, 2.07391325e-02, 1.61643438e-02, 4.62619960e-02,
          1.57743126e-01, 1.52430430e-01, 1.15092665e-01, 7.50274211e-02,
          5.26475273e-02, 3.58670652e-02, 3.83253321e-02, 3.09221763e-02,
          4.89772111e-02, 4.86162677e-02, 6.30606264e-02, 4.66150418e-02,
          8.22327510e-02, 9.34649557e-02, 9.07227471e-02, 8.61892402e-02 ]
      - [ 3.63813192e-02, 3.38172466e-02, 4.98828590e-02, 7.51150399e-02,
          5.65816201e-02, 1.33243248e-01, 1.53536454e-01, 8.35287422e-02,
          1.16626211e-01, 1.01762757e-01, 1.04984649e-01, 1.24031723e-01,
          9.94705409e-02, 6.61342144e-02, 6.60740286e-02, 6.17645830e-02,
          9.75078121e-02, 9.36686248e-02, 1.06469251e-01, 7.38209337e-02,
          9.40408781e-02, 7.20219761e-02, 1.33746400e-01, 2.11775631e-01,
          1.35074422e-01, 3.69703658e-02, 0., 1.00817718e-02,
          2.60385126e-02, 1.58239696e-02, 1.41283460e-02, 3.07510477e-02,
          4.72636484e-02, 2.74557099e-02, 3.00662667e-02, 4.23195399e-02,
          5.37651703e-02, 5.73300757e-02, 8.19619745e-02, 7.46573508e-02,
          8.71823356e-02, 7.17059821e-02, 6.29027337e-02, 3.44798490e-02,
          5.39541990e-02, 6.32017404e-02, 8.65687430e-02, 9.71695855e-02,
          1.30764082e-01, 1.07097544e-01, 1.28865033e-01, 1.10443220e-01,
          1.04979657e-01, 1.00821458e-01, 7.79049769e-02, 9.29763541e-02,
          1.23939104e-01, 9.43808630e-02, 6.89263046e-02, 1.19144255e-02,
          2.11641099e-02, 2.12456677e-02, 1.66157186e-02, 1.80471558e-02,
          1.08229980e-01, 1.99962735e-01, 1.29839361e-01, 7.55833462e-02,
          1.14069648e-01, 9.95556489e-02, 1.26943573e-01, 5.13794050e-02,
          9.50958058e-02, 4.25764173e-02, 4.92669381e-02, 6.35168701e-02,
          9.45513621e-02, 1.24592222e-01, 1.77369937e-01, 1.40417561e-01,
          1.23451911e-01, 7.10348040e-02, 7.03020692e-02, 7.19111487e-02,
          3.96674015e-02, 9.58177149e-02, 1.13585167e-01, 1.09491050e-01,
          9.16311145e-02, 8.89675617e-02, 7.65594095e-02, 5.58813252e-02,
          5.96159995e-02, 3.94859873e-02, 4.93137054e-02, 5.09354211e-02,
          3.89783531e-02, 9.14989710e-02, 4.88926619e-02, 2.45038942e-02,
          3.72591279e-02, 3.72595862e-02, 3.99245806e-02, 4.91979457e-02,
          6.40446916e-02, 8.61346871e-02, 6.56849965e-02, 5.89806661e-02,
          4.66690920e-02, 5.09126931e-02, 5.66981100e-02, 4.95793112e-02,
          6.81484640e-02, 7.52651989e-02, 1.07258417e-01, 1.08314984e-01,
          1.32208183e-01, 1.40571356e-01, 1.53642610e-01, 9.00854990e-02,
          1.06879860e-01, 4.36049588e-02, 9.28453058e-02, 6.98792562e-02,
          1.04045734e-01, 1.70060650e-01, 6.33474067e-02, 9.34760571e-02 ]
      - [ 9.38214362e-02, 6.58115745e-02, 8.06254223e-02, 7.81300887e-02,
          5.59749864e-02, 6.43431023e-02, 6.38438612e-02, 6.67111427e-02,
          1.37127727e-01, 9.22638997e-02, 1.39767617e-01, 1.33325458e-01,
          1.03593543e-01, 9.14354026e-02, 8.15684497e-02, 1.68841124e-01,
          2.06522107e-01, 1.38284057e-01, 5.33347279e-02, 6.52645528e-02,
          1.29354656e-01, 5.41008823e-02, 5.13067320e-02, 4.10629511e-02,
          6.53371438e-02, 8.84808898e-02, 1.35926172e-01, 8.05297196e-02,
          6.27250746e-02, 4.89112623e-02, 7.38997161e-02, 8.82109180e-02,
          9.77919027e-02, 3.47902551e-02, 2.39478126e-02, 5.29558677e-03,
          8.13010149e-03, 2.50498839e-02, 2.96368450e-02, 3.88488099e-02,
          7.85104781e-02, 8.71492252e-02, 1.21383987e-01, 1.10824868e-01,
          9.93444324e-02, 9.57964659e-02, 9.87044051e-02, 1.22076683e-01,
          1.53016761e-01, 1.09163195e-01, 1.15334474e-01, 1.09121673e-01,
          1.71309575e-01, 1.29897520e-01, 8.28299448e-02, 1.05784886e-01,
          1.00388773e-01, 7.05203190e-02, 7.41563886e-02, 5.51448539e-02,
          7.69772455e-02, 1.41150787e-01, 9.87398028e-02, 8.45666900e-02,
          5.98050244e-02, 4.64735068e-02, 4.71897908e-02, 5.00720777e-02,
          8.66766721e-02, 1.05795793e-01, 1.07739106e-01, 8.08461979e-02,
          1.05087504e-01, 1.02408089e-01, 8.80004168e-02, 6.41326457e-02,
          6.08977042e-02, 5.38523458e-02, 5.87249249e-02, 7.56715611e-02,
          1.18501358e-01, 8.13378468e-02, 8.06097314e-02, 4.33655605e-02,
          7.04057217e-02, 1.00211076e-01, 1.62933901e-01, 1.64234608e-01,
          1.27376646e-01, 4.62212749e-02, 2.14107670e-02, 2.87014712e-02,
          3.57606448e-02, 7.83799887e-02, 5.44241332e-02, 5.11383675e-02,
          1.14466473e-01, 1.14855602e-01, 9.38826799e-02, 4.94002402e-02,
          4.04192433e-02, 3.98294516e-02, 4.19996940e-02, 5.01105450e-02,
          5.12857474e-02, 2.65550241e-02, 2.27933098e-02, 0.,
          2.97202114e-02, 2.68620346e-02, 3.09234224e-02, 3.72797325e-02,
          1.60464838e-01, 1.70862123e-01, 1.36955649e-01, 1.21700950e-01,
          7.32731298e-02, 1.56787839e-02, 2.41310596e-02, 5.01575842e-02,
          5.75023070e-02, 1.86528713e-02, 3.11472639e-02, 3.61082219e-02,
          4.75885421e-02, 4.37614881e-02, 4.93925288e-02, 1.03488885e-01 ]
      - [ 7.45124146e-02, 5.26341796e-02, 4.28522378e-02, 6.73232824e-02,
          9.86313075e-02, 1.29154474e-01, 1.14457764e-01, 8.16865191e-02,
          1.43887401e-01, 1.51542544e-01, 1.70539245e-01, 1.34391248e-01,
          8.57574418e-02, 7.67483413e-02, 7.72840381e-02, 7.78620243e-02,
          9.15650129e-02, 7.11541399e-02, 8.19822177e-02, 7.16970861e-02,
          1.17717095e-01, 1.63429528e-01, 7.48035014e-02, 1.26428455e-01,
          1.19436555e-01, 5.08158095e-02, 6.16767369e-02, 3.35660838e-02,
          4.89324406e-02, 4.45275493e-02, 5.04114553e-02, 6.98458850e-02,
          3.58090475e-02, 1.51383169e-02, 1.33758383e-02, 2.15148516e-02,
          0., 4.82201837e-02, 3.13178338e-02, 6.98747858e-02,
          1.21531822e-01, 8.94600451e-02, 8.44438821e-02, 7.45147020e-02,
          6.26419708e-02, 8.76359791e-02, 8.15380365e-02, 9.66739878e-02,
          9.90977585e-02, 8.87958258e-02, 8.53579193e-02, 5.73690981e-02,
          6.59139901e-02, 7.29420111e-02, 1.34873942e-01, 1.02254629e-01,
          1.30229563e-01, 1.13474064e-01, 3.39499116e-02, 0.,
          1.26494430e-02, 1.16258170e-02, 7.89391436e-03, 1.10290404e-02,
          7.15454966e-02, 6.00980371e-02, 5.74017465e-02, 4.21634130e-02,
          4.74241115e-02, 8.57269913e-02, 1.08451284e-01, 8.43050703e-02,
          9.85334888e-02, 5.60643300e-02, 6.27936572e-02, 4.10840176e-02,
          7.47367293e-02, 1.19708300e-01, 2.06049860e-01, 1.47370398e-01,
          1.25011370e-01, 6.68103248e-02, 7.21374080e-02, 1.06011324e-01,
          1.22393712e-01, 9.78552923e-02, 1.49082527e-01, 1.25048414e-01,
          1.09721199e-01, 4.48830724e-02, 4.87254262e-02, 4.87720147e-02,
          3.43821011e-02, 3.03080846e-02, 2.15652920e-02, 5.99737763e-02,
          1.45286575e-01, 1.79175809e-01, 1.64525449e-01, 1.05599605e-01,
          1.67514477e-02, 2.62186844e-02, 4.16540578e-02, 3.62145267e-02,
          8.96311477e-02, 1.01918034e-01, 9.28813517e-02, 8.50314721e-02,
          8.53449330e-02, 1.20407268e-01, 8.62834528e-02, 9.58525091e-02,
          1.18405193e-01, 9.88890827e-02, 1.00792930e-01, 1.13240547e-01,
          6.60471991e-02, 1.21457793e-01, 9.52840149e-02, 5.66471368e-02,
          4.56654839e-02, 3.74957621e-02, 4.53597084e-02, 1.22360811e-02,
          3.29471678e-02, 3.22305709e-02, 5.20469733e-02, 7.01811090e-02 ]
      - [ 8.57152119e-02, 9.15058777e-02, 8.14172328e-02, 6.47756383e-02,
          3.36204320e-02, 8.83433893e-02, 7.18891621e-02, 8.85987654e-02,
          1.42321080e-01, 1.34762898e-01, 1.30741313e-01, 1.25222310e-01,
          1.28353626e-01, 1.01865157e-01, 9.34269726e-02, 1.04776546e-01,
          1.89311564e-01, 9.59052742e-02, 1.02283135e-01, 6.77761734e-02,
          8.36523548e-02, 8.73275772e-02, 8.78196508e-02, 7.59551376e-02,
          9.25670788e-02, 1.05679944e-01, 1.06061526e-01, 6.79960325e-02,
          6.26081079e-02, 4.70193587e-02, 4.04002517e-02, 7.91846365e-02,
          3.41239460e-02, 0., 2.24188901e-02, 2.82973107e-02,
          2.38846559e-02, 4.95698266e-02, 3.76368091e-02, 5.27837276e-02,
          7.42959529e-02, 9.94846672e-02, 1.07038893e-01, 9.29477215e-02,
          9.06926543e-02, 1.16475694e-01, 1.06412254e-01, 1.14098087e-01,
          1.74907699e-01, 1.41578496e-01, 9.04764086e-02, 8.87831599e-02,
          1.00702539e-01, 9.43836570e-02, 1.08242966e-01, 1.03711389e-01,
          7.71082938e-02, 3.22468020e-02, 4.44535203e-02, 3.25158611e-02,
          3.80258001e-02, 0., 1.19475080e-02, 0., 5.74992634e-02,
          5.62358201e-02, 6.78711161e-02, 1.03598259e-01, 6.65416941e-02,
          6.36435822e-02, 6.22039959e-02, 4.85636145e-02, 6.21888936e-02,
          7.03301579e-02, 7.69639909e-02, 9.09850076e-02, 9.17420462e-02,
          7.51190111e-02, 7.67186433e-02, 1.42816097e-01, 1.90707251e-01,
          9.77953523e-02, 7.92843699e-02, 7.55993947e-02, 7.20097870e-02,
          9.22872275e-02, 1.19355388e-01, 1.60458535e-01, 1.30475566e-01,
          4.84615117e-02, 3.96600738e-02, 2.39283759e-02, 3.24484371e-02,
          0., 5.68558760e-02, 6.44462705e-02, 1.95444822e-01,
          2.14432761e-01, 1.15591161e-01, 7.25314990e-02, 4.96848524e-02,
          4.85626757e-02, 4.19606492e-02, 3.42559963e-02, 8.36511403e-02,
          5.42023517e-02, 4.65366989e-02, 4.30150330e-02, 5.19814901e-02,
          4.09376211e-02, 4.60031480e-02, 5.59247285e-02, 1.36260867e-01,
          1.52372584e-01, 1.26254350e-01, 1.27983227e-01, 8.93702656e-02,
          6.04538023e-02, 4.95825373e-02, 4.25122790e-02, 4.34151962e-02,
          3.28737609e-02, 4.47776727e-02, 2.64837109e-02, 3.94710265e-02,
          6.61519691e-02, 6.30494580e-02, 5.95556907e-02 ]
      - [ 1.01388283e-01, 5.16849197e-02, 7.32458532e-02, 6.20375723e-02,
          6.65608644e-02, 5.42310737e-02, 4.29551490e-02, 7.39792287e-02,
          1.21105246e-01, 1.28385484e-01, 9.87772346e-02, 1.29383296e-01,
          1.24590017e-01, 1.08632803e-01, 6.90555573e-02, 1.31035432e-01,
          1.82735458e-01, 1.87004581e-01, 9.54146087e-02, 9.58580598e-02,
          8.14969614e-02, 1.09967999e-01, 8.14260840e-02, 3.83260660e-02,
          5.65934069e-02, 7.91442171e-02, 1.12438761e-01, 1.34828746e-01,
          7.54486546e-02, 6.62013292e-02, 4.81832027e-02, 1.01328798e-01,
          9.31947827e-02, 2.55966540e-02, 3.37127075e-02, 1.87950134e-02,
          0., 2.69675031e-02, 1.65274814e-02, 5.51570691e-02,
          8.52512717e-02, 8.51263106e-02, 8.90542120e-02, 1.24889746e-01,
          1.19612984e-01, 9.02743861e-02, 1.20871030e-01, 1.17377013e-01,
          1.82346404e-01, 1.17726333e-01, 9.40725654e-02, 1.19566284e-01,
          9.99422446e-02, 1.18466005e-01, 9.45450664e-02, 7.58852884e-02,
          1.12760127e-01, 1.02476642e-01, 3.91832516e-02, 3.30382772e-02,
          6.40131012e-02, 6.39962628e-02, 8.19747224e-02, 9.02126878e-02,
          5.62745295e-02, 5.54075018e-02, 4.70279194e-02, 5.32637201e-02,
          6.12347275e-02, 8.43682811e-02, 1.30870163e-01, 1.17460333e-01,
          1.29078299e-01, 1.20565869e-01, 8.48566666e-02, 8.25335160e-02,
          4.83971760e-02, 5.91499433e-02, 4.45399284e-02, 6.24070726e-02,
          1.07310846e-01, 7.13960826e-02, 6.81451634e-02, 5.69722131e-02,
          6.48025274e-02, 9.25039724e-02, 1.26356170e-01, 1.80429205e-01,
          1.84828281e-01, 6.45363703e-02, 4.35338244e-02, 3.59607711e-02,
          3.58472914e-02, 4.45185453e-02, 4.49748076e-02, 3.64644602e-02,
          1.05204880e-01, 1.13344081e-01, 9.90020260e-02, 7.46853873e-02,
          3.09998114e-02, 4.24939655e-02, 2.17235908e-02, 2.18604859e-02,
          0., 1.62116699e-02, 6.40436541e-03, 1.92235410e-02,
          9.99871548e-03, 5.60872164e-03, 1.92521196e-02, 2.09138151e-02,
          1.63465336e-01, 1.73196286e-01, 1.34321406e-01, 1.11203857e-01,
          6.75700754e-02, 3.87682170e-02, 3.03925555e-02, 3.13994288e-02,
          6.81834146e-02, 1.21193128e-02, 3.19937058e-02, 4.45666499e-02,
          6.30313233e-02, 7.08804950e-02, 8.13804194e-02, 1.05319761e-01 ]
      - [ 8.81740227e-02, 8.68398771e-02, 8.78767744e-02, 7.33313486e-02,
          7.88927004e-02, 9.24867392e-02, 7.27430657e-02, 1.04429357e-01,
          1.49725884e-01, 1.29602894e-01, 1.42569795e-01, 1.20705441e-01,
          1.25559777e-01, 1.03755742e-01, 6.95479736e-02, 8.71537700e-02,
          9.66228321e-02, 7.87458047e-02, 9.99289155e-02, 6.97400197e-02,
          1.04801647e-01, 1.33932143e-01, 1.02115035e-01, 1.07440852e-01,
          1.08053550e-01, 1.04348578e-01, 6.87791482e-02, 6.93864822e-02,
          5.83072640e-02, 3.10380757e-02, 6.71101213e-02, 5.97984307e-02,
          4.06438075e-02, 1.57956146e-02, 9.31141712e-03, 2.85041649e-02,
          2.98384223e-02, 2.80087069e-02, 4.01174091e-02, 6.54024482e-02,
          9.39767733e-02, 9.13512409e-02, 8.02429989e-02, 8.57564360e-02,
          7.91107640e-02, 7.72806555e-02, 1.09094061e-01, 1.18918158e-01,
          1.63778931e-01, 1.05902657e-01, 9.69950408e-02, 6.86735436e-02,
          6.56224936e-02, 9.53894630e-02, 1.18066907e-01, 8.20243955e-02,
          7.96588212e-02, 7.77162760e-02, 7.00736567e-02, 3.55120078e-02,
          2.40455717e-02, 0., 8.55260715e-03, 0., 8.10484588e-02,
          6.16019554e-02, 7.01626688e-02, 8.03934112e-02, 6.18339442e-02,
          4.21921350e-02, 6.25383705e-02, 5.12534529e-02, 4.83968668e-02,
          7.64018074e-02, 8.06864500e-02, 7.96075165e-02, 9.21828896e-02,
          7.23925829e-02, 1.32559404e-01, 2.11041495e-01, 1.66256964e-01,
          8.25095773e-02, 6.56606182e-02, 1.20648347e-01, 1.00025706e-01,
          9.48453918e-02, 1.25977531e-01, 1.42744064e-01, 1.13002159e-01,
          4.36901376e-02, 2.97326185e-02, 0., 2.98111513e-02,
          2.75841746e-02, 4.23431545e-02, 3.79657634e-02, 1.20835848e-01,
          1.97163656e-01, 1.41284391e-01, 1.49328947e-01, 3.64097543e-02,
          7.72782415e-02, 4.50129546e-02, 3.20013426e-02, 8.46123844e-02,
          6.58853874e-02, 5.41444719e-02, 5.91408834e-02, 8.25894997e-02,
          8.26765895e-02, 5.41915409e-02, 9.32145417e-02, 1.49472013e-01,
          1.27282381e-01, 1.21953920e-01, 1.25194207e-01, 8.51897672e-02,
          7.11772218e-02, 6.33665323e-02, 4.30794619e-02, 3.93371433e-02,
          3.45678516e-02, 3.03537436e-02, 2.36899611e-02, 5.20294271e-02,
          5.42019233e-02, 5.11694774e-02, 8.83803144e-02 ]
      - [ 6.34706467e-02, 4.49093841e-02, 5.70743270e-02, 6.45032004e-02,
          8.61358270e-02, 1.00301042e-01, 1.14013724e-01, 8.02284405e-02,
          1.21263005e-01, 1.50966585e-01, 1.72107786e-01, 1.32348031e-01,
          8.89066234e-02, 4.79700379e-02, 6.14382289e-02, 6.03912584e-02,
          1.00904591e-01, 5.37370667e-02, 8.02734047e-02, 9.54880565e-02,
          1.03075273e-01, 1.48046389e-01, 1.09101079e-01, 9.56514180e-02,
          1.05597474e-01, 3.96395773e-02, 4.51738350e-02, 4.01311815e-02,
          1.60625968e-02, 2.12956630e-02, 3.18549015e-02, 2.74188221e-02,
          4.34454232e-02, 2.74081547e-02, 1.89006608e-02, 4.55191806e-02,
          3.96679826e-02, 3.16721871e-02, 3.86193693e-02, 3.97044942e-02,
          9.36134905e-02, 7.50631392e-02, 7.62192681e-02, 5.09266034e-02,
          6.37902170e-02, 6.72871917e-02, 7.23025277e-02, 9.42938402e-02,
          1.26444221e-01, 9.85216275e-02, 5.95502220e-02, 4.30573449e-02,
          6.07747473e-02, 3.64030451e-02, 1.11951210e-01, 1.00503474e-01,
          1.21818431e-01, 1.24974862e-01, 5.88902235e-02, 7.72395357e-03,
          2.15214156e-02, 1.46534070e-02, 1.74143985e-02, 8.75228923e-03,
          2.26724923e-01, 1.08439811e-01, 1.24563754e-01, 9.22078937e-02,
          9.75432619e-02, 9.31945592e-02, 7.62768239e-02, 6.67451769e-02,
          1.10996164e-01, 5.52375056e-02, 5.09308428e-02, 5.20139597e-02,
          8.53352174e-02, 1.79835394e-01, 1.75109401e-01, 8.80425200e-02,
          1.25128388e-01, 4.95400727e-02, 6.89382032e-02, 5.87678924e-02,
          1.11082576e-01, 1.14355832e-01, 1.05207086e-01, 9.77399200e-02,
          9.30502713e-02, 6.02888688e-02, 5.40911518e-02, 4.87749800e-02,
          5.19274510e-02, 4.82436493e-02, 2.46208496e-02, 1.47876173e-01,
          1.69742197e-01, 2.35032141e-01, 1.45799175e-01, 4.47811224e-02,
          3.06016468e-02, 3.98450792e-02, 4.36671823e-02, 5.64555712e-02,
          9.79259908e-02, 1.15806885e-01, 7.42209628e-02, 8.63800719e-02,
          6.18941523e-02, 9.50477347e-02, 5.04307114e-02, 8.83707404e-02,
          1.10404775e-01, 7.75846392e-02, 8.13836381e-02, 1.20286144e-01,
          7.99098983e-02, 1.33042902e-01, 1.14218242e-01, 6.98202103e-02,
          3.89644578e-02, 3.47090513e-02, 2.63620745e-02, 2.70569511e-02,
          2.45236978e-02, 4.18459624e-02, 3.44692506e-02, 3.64552699e-02 ]
      - [ 8.22004899e-02, 8.94077122e-02, 8.47032517e-02, 7.56806135e-02,
          7.45821074e-02, 7.44063333e-02, 8.81758034e-02, 9.93086696e-02,
          1.82263896e-01, 1.24986947e-01, 1.03095897e-01, 1.23004094e-01,
          9.00174007e-02, 8.92267823e-02, 1.27571434e-01, 1.59587488e-01,
          1.65229261e-01, 1.12676255e-01, 1.12193309e-01, 1.05948932e-01,
          1.11236028e-01, 1.41144827e-01, 8.94860923e-02, 3.86481509e-02,
          7.51161575e-02, 1.02086633e-01, 1.05981186e-01, 6.68020919e-02,
          3.59150618e-02, 7.87246451e-02, 6.84341043e-02, 8.27990174e-02,
          6.30457401e-02, 1.08762244e-02, 7.46749667e-03, 1.28078824e-02,
          8.79375171e-03, 5.81758246e-02, 6.46745488e-02, 5.83204404e-02,
          1.26099586e-01, 9.69039649e-02, 6.38365149e-02, 6.91470504e-02,
          8.64345804e-02, 7.94841647e-02, 9.27111953e-02, 8.41875225e-02,
          1.31376967e-01, 5.57713807e-02, 9.00922865e-02, 1.10633068e-01,
          9.85685289e-02, 1.15895860e-01, 7.90326819e-02, 6.55595437e-02,
          4.30519953e-02, 3.10626626e-02, 5.61255291e-02, 2.19904594e-02,
          4.20583673e-02, 7.31355473e-02, 9.54375491e-02, 3.37974615e-02,
          1.00248791e-01, 1.15289994e-01, 7.52416700e-02, 7.36679956e-02,
          1.01987347e-01, 8.24017227e-02, 1.30167007e-01, 1.23109989e-01,
          1.44539595e-01, 1.07081942e-01, 6.61375746e-02, 1.00810215e-01,
          5.24980687e-02, 9.19682160e-02, 9.87284184e-02, 1.13796487e-01,
          1.54579222e-01, 9.02930722e-02, 6.29948825e-02, 3.22853588e-02,
          4.87118028e-02, 1.10940538e-01, 1.26739830e-01, 7.88839459e-02,
          7.95430467e-02, 5.36916368e-02, 4.09013107e-02, 4.48699147e-02,
          8.47816989e-02, 8.88375044e-02, 8.49055871e-02, 7.94597492e-02,
          6.13757893e-02, 4.73282039e-02, 4.57458682e-02, 5.66103570e-02,
          1.85825564e-02, 5.59492633e-02, 7.90069848e-02, 7.81045705e-02,
          8.90294388e-02, 6.53985292e-02, 6.62495196e-02, 4.87435088e-02,
          5.00953831e-02, 5.40312715e-02, 5.96492551e-02, 6.52666762e-02,
          1.54030412e-01, 1.33015975e-01, 1.14748597e-01, 1.32402956e-01,
          1.14489697e-01, 9.76978168e-02, 7.88225159e-02, 5.91151342e-02,
          8.59790966e-02, 9.17796716e-02, 3.90369222e-02, 5.67060076e-02,
          6.57980368e-02, 4.03034613e-02, 4.91532274e-02, 6.93211779e-02 ]
      - [ 5.55701256e-02, 5.41083515e-02, 2.79264860e-02, 7.85112455e-02,
          6.16802499e-02, 8.20648596e-02, 8.77298415e-02, 9.96607989e-02,
          1.55095786e-01, 1.31933689e-01, 9.67989117e-02, 8.62321705e-02,
          1.04688771e-01, 9.78820249e-02, 8.80397782e-02, 8.84973928e-02,
          1.11910641e-01, 1.25043169e-01, 8.40390101e-02, 1.24237791e-01,
          1.20139442e-01, 1.58675537e-01, 1.81169078e-01, 1.54580712e-01,
          1.19268045e-01, 6.47095591e-02, 7.04874173e-02, 5.32880537e-02,
          5.27400263e-02, 9.40156728e-02, 6.15571439e-02, 6.38083741e-02,
          8.90356973e-02, 9.78339165e-02, 8.34514648e-02, 6.00208007e-02,
          5.50333858e-02, 7.27456287e-02, 5.84207438e-02, 7.04238191e-02,
          1.09815493e-01, 1.47989869e-01, 1.23805150e-01, 8.20028633e-02,
          1.15681447e-01, 1.14570968e-01, 1.01297796e-01, 7.14289173e-02,
          1.12253375e-01, 1.06917650e-01, 9.05108303e-02, 1.00019954e-01,
          1.00090064e-01, 6.84676543e-02, 6.96286112e-02, 1.23121865e-01,
          1.03060350e-01, 1.07078545e-01, 8.21442530e-02, 8.63041505e-02,
          7.79357702e-02, 4.88322340e-02, 6.33576214e-02, 7.10533261e-02,
          3.91537957e-02, 2.63781603e-02, 4.59022485e-02, 4.69620489e-02,
          5.05132116e-02, 8.20245296e-02, 6.20907061e-02, 1.54932901e-01,
          1.46199942e-01, 1.82027787e-01, 1.32200971e-01, 8.87802914e-02,
          8.93332660e-02, 7.08156824e-02, 4.36662957e-02, 4.33866978e-02,
          6.35753721e-02, 3.77969556e-02, 6.54903650e-02, 6.50988445e-02,
          5.89530915e-02, 8.14610124e-02, 1.24766737e-01, 1.70462832e-01,
          1.80752456e-01, 1.54311523e-01, 1.25928536e-01, 8.35329443e-02,
          5.63822426e-02, 5.19458354e-02, 3.53280865e-02, 3.34003679e-02,
          6.67605363e-03, 1.72156915e-02, 0., 1.21542793e-02, 0.,
          1.40316952e-02, 4.84667812e-03, 1.46815600e-02, 4.59919460e-02,
          4.13477123e-02, 3.48288529e-02, 5.21092080e-02, 4.04804870e-02,
          4.47935946e-02, 5.03363796e-02, 6.88117445e-02, 1.61995187e-01,
          1.38166100e-01, 1.09328970e-01, 7.75720626e-02, 4.31242771e-02,
          4.35145572e-02, 3.59225906e-02, 2.90232673e-02, 6.28166348e-02,
          3.91135626e-02, 2.88156867e-02, 2.43280455e-02, 4.06028666e-02,
          4.64297421e-02, 4.07583527e-02, 2.52000149e-02 ]
      - [ 9.44138169e-02, 6.28383681e-02, 7.44178221e-02, 7.61777759e-02,
          6.63572848e-02, 4.17249613e-02, 7.57543147e-02, 6.83744103e-02,
          1.55919090e-01, 1.21881843e-01, 1.31527081e-01, 1.11504473e-01,
          8.28866810e-02, 1.09736480e-01, 9.33958888e-02, 1.58058122e-01,
          2.09728062e-01, 1.07820056e-01, 5.38133122e-02, 7.83843100e-02,
          1.01333231e-01, 8.05332512e-02, 5.81309050e-02, 4.54567000e-02,
          8.95794183e-02, 1.01377323e-01, 1.30669102e-01, 6.32757396e-02,
          5.55870011e-02, 5.55710681e-02, 6.63413927e-02, 7.42863193e-02,
          9.85595360e-02, 0., 1.11191720e-02, 1.61157418e-02,
          2.81930473e-02, 2.18843296e-02, 2.64824014e-02, 5.76912723e-02,
          5.97630888e-02, 9.61200073e-02, 1.35798723e-01, 1.04799323e-01,
          9.55764949e-02, 7.48326853e-02, 1.09623335e-01, 1.01180658e-01,
          1.70563862e-01, 9.33680013e-02, 8.37591290e-02, 1.02721304e-01,
          1.50167242e-01, 1.56597733e-01, 8.72059539e-02, 1.30526200e-01,
          9.95456725e-02, 6.64332733e-02, 6.94711581e-02, 4.56145778e-02,
          9.87740532e-02, 1.47618204e-01, 9.36144516e-02, 9.71049890e-02,
          5.33737801e-02, 5.44989929e-02, 4.52082604e-02, 5.17782979e-02,
          8.94559175e-02, 9.95850787e-02, 9.64433625e-02, 8.72125551e-02,
          1.03143021e-01, 1.00123897e-01, 8.20000246e-02, 6.32162616e-02,
          6.22732714e-02, 4.92905192e-02, 6.43417910e-02, 8.40978771e-02,
          1.40194431e-01, 8.24448988e-02, 7.67972395e-02, 5.34556918e-02,
          7.14339986e-02, 1.08138524e-01, 1.52798235e-01, 1.74520403e-01,
          1.01104975e-01, 4.24357802e-02, 2.70355456e-02, 2.14498863e-02,
          2.73500215e-02, 7.46071786e-02, 7.20204413e-02, 5.13346493e-02,
          1.27288029e-01, 1.11119129e-01, 6.96229786e-02, 6.34543300e-02,
          4.61042523e-02, 3.22295837e-02, 5.71619608e-02, 4.86747734e-02,
          6.13979176e-02, 4.00449559e-02, 2.68466920e-02, 2.13755406e-02,
          3.77965793e-02, 2.69673448e-02, 3.64979059e-02, 5.71311414e-02,
          1.64310127e-01, 1.55529380e-01, 1.42814487e-01, 1.10784240e-01,
          7.05912933e-02, 3.72249410e-02, 5.28763235e-02, 3.93700637e-02,
          5.39152287e-02, 3.70498002e-02, 1.31734516e-02, 3.98550965e-02,
          3.65647860e-02, 4.57633063e-02, 5.55649325e-02, 9.28166509e-02 ]
      - [ 7.89274126e-02, 4.93718721e-02, 9.16380286e-02, 9.07597169e-02,
          7.18678907e-02, 9.17456299e-02, 7.72948340e-02, 8.92829672e-02,
          1.36115476e-01, 1.63028136e-01, 1.01186864e-01, 1.00267395e-01,
          1.11632898e-01, 7.67848641e-02, 9.85945538e-02, 1.13094360e-01,
          1.74399793e-01, 1.29582450e-01, 1.23090513e-01, 1.23215310e-01,
          1.26259655e-01, 1.29331186e-01, 1.44941822e-01, 4.56799343e-02,
          6.82807937e-02, 1.01557761e-01, 1.00415602e-01, 4.28983606e-02,
          5.39161861e-02, 3.44030298e-02, 6.94981143e-02, 7.47725591e-02,
          5.05777001e-02, 5.01021408e-02, 1.92718878e-02, 3.36567350e-02,
          3.65900397e-02, 3.25015821e-02, 8.55600163e-02, 7.61301666e-02,
          1.26870766e-01, 1.22932784e-01, 1.06758125e-01, 1.19574547e-01,
          1.12128019e-01, 8.81808400e-02, 7.82721713e-02, 8.61233994e-02,
          8.28760862e-02, 9.14483517e-02, 6.87118769e-02, 7.45688751e-02,
          6.95035979e-02, 7.78173506e-02, 8.90013129e-02, 5.05648516e-02,
          9.86239314e-02, 6.55874014e-02, 3.29378769e-02, 5.52566387e-02,
          2.80367061e-02, 6.17069192e-02, 9.30808112e-02, 7.86713883e-02,
          8.66675302e-02, 7.04294145e-02, 8.92755687e-02, 1.09695196e-01,
          6.59656897e-02, 9.05453041e-02, 1.39821738e-01, 1.67638272e-01,
          1.51504815e-01, 1.17048807e-01, 9.50560197e-02, 8.39902237e-02,
          6.71579838e-02, 6.58051446e-02, 5.08395769e-02, 7.02322721e-02,
          1.24425545e-01, 7.73062855e-02, 5.51553965e-02, 2.96977423e-02,
          4.69604619e-02, 9.43164900e-02, 9.43822190e-02, 1.26008630e-01,
          9.49376002e-02, 6.21553697e-02, 6.68482706e-02, 5.27750999e-02,
          1.02095112e-01, 9.03356969e-02, 9.34399739e-02, 6.14364371e-02,
          8.84527713e-02, 7.97362775e-02, 6.80870786e-02, 7.15153217e-02,
          6.69506863e-02, 6.38159811e-02, 1.11678571e-01, 8.16972181e-02,
          7.35761225e-02, 4.73044030e-02, 6.21883385e-02, 3.80540080e-02,
          2.07359940e-02, 6.25788644e-02, 7.89742395e-02, 1.12868033e-01,
          1.12523302e-01, 9.95365083e-02, 9.13489386e-02, 1.06023967e-01,
          1.14814475e-01, 9.29595158e-02, 6.67554885e-02, 6.60976991e-02,
          9.04873610e-02, 7.51738176e-02, 2.80219670e-02, 6.07860424e-02,
          5.61235547e-02, 5.69041744e-02, 5.76855727e-02, 7.60787502e-02 ]
      - [ 1.27334028e-01, 7.91683942e-02, 9.37008560e-02, 7.45650828e-02,
          1.02290615e-01, 1.20361350e-01, 1.11737810e-01, 1.39881879e-01,
          1.50243565e-01, 1.26576334e-01, 9.84442681e-02, 7.16251731e-02,
          9.44389030e-02, 7.81631917e-02, 8.02084804e-02, 1.26237661e-01,
          1.41537949e-01, 8.27830061e-02, 9.34038758e-02, 8.32306743e-02,
          1.12836972e-01, 1.35428667e-01, 8.54050666e-02, 2.48405505e-02,
          7.84622654e-02, 4.22933325e-02, 5.85262179e-02, 5.82031794e-02,
          6.30016997e-02, 7.24833682e-02, 4.10932191e-02, 9.90674496e-02,
          5.84023707e-02, 2.86095124e-02, 4.64037731e-02, 1.86405815e-02,
          2.03901716e-02, 4.23892140e-02, 2.57050041e-02, 3.76844481e-02,
          6.65037706e-02, 9.79300737e-02, 6.59974664e-02, 6.58295378e-02,
          9.79993343e-02, 6.85208514e-02, 9.36717018e-02, 1.08564116e-01,
          8.17950815e-02, 5.58063202e-02, 5.44316322e-02, 6.16451465e-02,
          8.20028931e-02, 8.76275301e-02, 5.29603921e-02, 2.51451954e-02,
          6.35479689e-02, 1.03215352e-01, 1.04954921e-01, 4.87877280e-02,
          6.48596734e-02, 6.75174892e-02, 6.23781756e-02, 5.60999364e-02,
          9.54583287e-02, 5.55087887e-02, 4.73408736e-02, 5.02485000e-02,
          6.28368184e-02, 8.42110291e-02, 1.20700389e-01, 1.08612418e-01,
          1.12679921e-01, 8.82760510e-02, 6.95850104e-02, 6.89425841e-02,
          1.12970069e-01, 1.31179407e-01, 1.61648259e-01, 1.63672924e-01,
          1.16987169e-01, 6.94604814e-02, 8.04851428e-02, 1.09050579e-01,
          7.13169798e-02, 6.62109405e-02, 5.19883037e-02, 5.38826324e-02,
          4.32375707e-02, 4.57682908e-02, 5.12486622e-02, 8.56487006e-02,
          8.40793550e-02, 1.02110945e-01, 9.76089090e-02, 8.39392766e-02,
          8.84034112e-02, 9.24528092e-02, 7.08553493e-02, 6.88274130e-02,
          5.54661378e-02, 8.86364207e-02, 1.29496753e-01, 9.38312411e-02,
          8.21830556e-02, 1.44612387e-01, 8.58414993e-02, 9.16166157e-02,
          8.32562819e-02, 9.49476510e-02, 1.00609899e-01, 9.77893248e-02,
          1.15424074e-01, 6.89525679e-02, 1.13512695e-01, 1.20358519e-01,
          1.84209287e-01, 1.19033642e-01, 8.78926963e-02, 8.29126313e-02,
          9.96641889e-02, 5.35174459e-02, 5.70871755e-02, 3.28412801e-02,
          1.73386000e-02, 5.98012619e-02, 6.52601272e-02, 9.52500254e-02 ]
      - [ 1.10104576e-01, 3.37234437e-02, 6.81395605e-02, 8.53329822e-02,
          4.57291119e-02, 3.61684188e-02, 4.88966331e-02, 7.46452063e-02,
          1.31708935e-01, 1.34935543e-01, 1.33355096e-01, 1.25720292e-01,
          9.15550515e-02, 5.76813444e-02, 8.71307254e-02, 9.83972251e-02,
          2.01732799e-01, 1.57309681e-01, 1.28496110e-01, 8.03736448e-02,
          8.77031162e-02, 9.97737050e-02, 1.09948039e-01, 5.21293804e-02,
          6.50105104e-02, 7.80687556e-02, 1.42400950e-01, 1.21018969e-01,
          6.89828694e-02, 5.10710366e-02, 5.88002056e-02, 9.17007253e-02,
          3.86836790e-02, 3.06213237e-02, 4.04388458e-02, 2.47246418e-02,
          0., 5.65249287e-02, 3.45708691e-02, 7.88850039e-02,
          9.81321633e-02, 1.16520010e-01, 1.30325586e-01, 1.31276503e-01,
          1.06467731e-01, 9.67784524e-02, 1.23582289e-01, 1.03831135e-01,
          1.14240110e-01, 8.44664127e-02, 8.72683898e-02, 8.58906880e-02,
          9.68763456e-02, 1.44624636e-01, 1.26648739e-01, 6.69509992e-02,
          8.18153843e-02, 6.27895743e-02, 1.70137491e-02, 4.70242500e-02,
          3.46636400e-02, 5.87368906e-02, 5.78496642e-02, 1.13918297e-01,
          5.16673066e-02, 5.96416071e-02, 7.46365190e-02, 8.43731537e-02,
          7.76251256e-02, 9.65498835e-02, 1.05403997e-01, 9.99391526e-02,
          1.03220545e-01, 1.41484141e-01, 1.33866638e-01, 6.97488636e-02,
          5.52622564e-02, 5.40624782e-02, 6.82034716e-02, 6.87779486e-02,
          1.06296971e-01, 6.20795675e-02, 6.13974668e-02, 7.30207711e-02,
          5.87250702e-02, 8.81606564e-02, 1.57357365e-01, 1.76538825e-01,
          1.85431957e-01, 5.98498061e-02, 6.73343018e-02, 2.02203691e-02,
          5.68972379e-02, 7.25240558e-02, 4.46872339e-02, 6.97557628e-02,
          9.31671187e-02, 1.02851465e-01, 1.07539468e-01, 9.50589254e-02,
          4.02694829e-02, 6.35535493e-02, 4.43109721e-02, 3.13676335e-02,
          2.06531454e-02, 2.43733302e-02, 0., 9.05538816e-03,
          1.10476362e-02, 6.47576340e-03, 1.02330530e-02, 3.70858684e-02,
          1.84872285e-01, 1.19792208e-01, 1.37086421e-01, 1.07068479e-01,
          7.52545074e-02, 4.72018272e-02, 3.55702974e-02, 1.86636820e-02,
          6.09108023e-02, 6.65130392e-02, 5.61780930e-02, 3.49502899e-02,
          4.81309667e-02, 5.66634983e-02, 6.49389625e-02, 6.91603795e-02 ]
      - [ 6.77063465e-02, 1.55904414e-02, 6.37221113e-02, 6.55838326e-02,
          6.32204562e-02, 1.21784754e-01, 1.61439121e-01, 8.95778537e-02,
          1.18961468e-01, 8.11617076e-02, 8.88761207e-02, 1.48595914e-01,
          1.04338534e-01, 5.13644107e-02, 6.56408072e-02, 3.32025066e-02,
          8.33405852e-02, 1.07489184e-01, 9.71158594e-02, 6.17103428e-02,
          1.12150654e-01, 6.60210773e-02, 1.28768727e-01, 2.27753580e-01,
          1.42216057e-01, 5.38555793e-02, 2.51632314e-02, 2.64585353e-02,
          2.53078975e-02, 2.83753034e-02, 1.13668907e-02, 4.50786948e-02,
          5.26642054e-02, 2.51773242e-02, 3.75766829e-02, 4.86597456e-02,
          3.28157842e-02, 6.45639151e-02, 5.91466799e-02, 8.41913074e-02,
          8.51455331e-02, 7.23448098e-02, 4.70336340e-02, 6.91004694e-02,
          5.65851778e-02, 6.61236346e-02, 8.23502392e-02, 8.94557014e-02,
          1.40802070e-01, 1.06350310e-01, 1.19874544e-01, 9.92263183e-02,
          9.60386917e-02, 8.33427384e-02, 9.02838856e-02, 9.58153605e-02,
          1.31837532e-01, 1.02779597e-01, 6.56856671e-02, 2.18664259e-02,
          1.91578791e-02, 1.55260898e-02, 1.37819592e-02, 1.70013905e-02,
          1.23285964e-01, 2.26212040e-01, 1.04552694e-01, 6.80615529e-02,
          8.21360499e-02, 1.09252326e-01, 1.10673718e-01, 5.70224039e-02,
          8.29123557e-02, 3.20146307e-02, 5.06795011e-02, 5.84250204e-02,
          8.37841257e-02, 1.34083271e-01, 1.66841596e-01, 1.41274720e-01,
          1.03198498e-01, 7.03504756e-02, 6.40208647e-02, 1.03622466e-01,
          9.77068767e-02, 1.08819075e-01, 5.35232238e-02, 8.91940966e-02,
          1.01723284e-01, 7.86365345e-02, 6.29816055e-02, 6.30752668e-02,
          4.68379855e-02, 5.66568077e-02, 3.66803296e-02, 6.87515512e-02,
          8.32988322e-02, 1.00460492e-01, 1.40903173e-02, 2.30674874e-02,
          4.84410971e-02, 2.78934296e-02, 5.03456481e-02, 3.38879079e-02,
          8.31003189e-02, 7.86642581e-02, 7.18961358e-02, 4.30989452e-02,
          6.26526847e-02, 4.06194106e-02, 5.24368957e-02, 5.43249026e-02,
          7.36339018e-02, 8.62167180e-02, 1.00197054e-01, 1.13105848e-01,
          1.40257210e-01, 1.50839925e-01, 1.23799250e-01, 1.03958607e-01,
          9.93438214e-02, 4.11959328e-02, 7.87718594e-02, 8.14251304e-02,
          1.13793440e-01, 1.60983145e-01, 6.10248260e-02, 5.41420877e-02 ]
      - [ 9.36374515e-02, 8.99861306e-02, 8.86900425e-02, 8.15739110e-02,
          9.07373056e-02, 6.40245378e-02, 1.01364225e-01, 1.13429807e-01,
          1.51760206e-01, 1.86365440e-01, 1.11648463e-01, 1.05780147e-01,
          7.31017143e-02, 9.98698846e-02, 9.70219076e-02, 7.46316165e-02,
          1.13935225e-01, 8.42376128e-02, 1.02376059e-01, 1.07607193e-01,
          8.05949569e-02, 1.09598398e-01, 9.29977000e-02, 8.76061171e-02,
          1.35850027e-01, 1.21821515e-01, 6.53584525e-02, 5.45177981e-02,
          2.50439942e-02, 5.55015802e-02, 5.18045239e-02, 3.93471755e-02,
          7.18115568e-02, 2.16986984e-02, 1.77921187e-02, 2.55029239e-02,
          1.34079475e-02, 2.87823547e-02, 6.21301644e-02, 5.93282841e-02,
          8.68834853e-02, 8.11072513e-02, 4.32457402e-02, 3.71021144e-02,
          1.04355164e-01, 1.03308953e-01, 9.36374143e-02, 9.02626216e-02,
          1.22071765e-01, 9.04682949e-02, 5.99239431e-02, 5.41410446e-02,
          6.91158623e-02, 1.37572214e-01, 6.96721748e-02, 5.80525696e-02,
          8.30028579e-02, 7.06053749e-02, 9.22532603e-02, 4.72230017e-02,
          5.22927307e-02, 6.94856718e-02, 5.12309372e-02, 8.08175951e-02,
          1.09124273e-01, 7.31671900e-02, 6.20671138e-02, 5.12541011e-02,
          7.20959604e-02, 7.46063590e-02, 1.09981842e-01, 6.57484606e-02,
          9.55091119e-02, 1.06924094e-01, 8.32465813e-02, 8.46382156e-02,
          7.35662580e-02, 1.05034038e-01, 1.75298855e-01, 1.66696370e-01,
          1.97403461e-01, 9.49114338e-02, 8.58934671e-02, 1.12054020e-01,
          1.26469836e-01, 1.07820995e-01, 1.02338701e-01, 8.64057019e-02,
          6.94270954e-02, 5.89901432e-02, 3.15239467e-02, 2.92289034e-02,
          6.86606541e-02, 7.02689588e-02, 8.72797370e-02, 6.82616830e-02,
          7.73946494e-02, 4.78565246e-02, 2.70847827e-02, 4.37858403e-02,
          4.45911027e-02, 4.15154062e-02, 5.23918308e-02, 6.76060617e-02,
          1.08730488e-01, 9.56438780e-02, 7.84303546e-02, 8.21360350e-02,
          5.98576292e-02, 7.54107386e-02, 9.37766656e-02, 6.55661002e-02,
          1.47862718e-01, 1.59770265e-01, 1.46076471e-01, 1.39578789e-01,
          1.17994726e-01, 9.39944834e-02, 6.62584603e-02, 5.36893867e-02,
          5.64635955e-02, 6.42604679e-02, 4.05163355e-02, 4.04235683e-02,
          6.56682551e-02, 5.04132658e-02, 3.86116654e-02, 5.31220920e-02 ]
      - [ 9.34606940e-02, 6.56451136e-02, 1.10939898e-01, 8.20329189e-02,
          7.79276043e-02, 7.12095276e-02, 9.46835428e-02, 8.87990072e-02,
          1.48657173e-01, 1.43280298e-01, 1.19160600e-01, 9.94867682e-02,
          7.76609480e-02, 9.65395719e-02, 9.99414399e-02, 1.19231820e-01,
          1.76748529e-01, 1.35867387e-01, 1.38421774e-01, 1.32055774e-01,
          1.31633118e-01, 1.36553079e-01, 1.40058726e-01, 7.86074772e-02,
          5.67790121e-02, 7.32934922e-02, 1.15790807e-01, 4.59599569e-02,
          5.85013069e-02, 9.66324098e-03, 6.55046105e-02, 8.43563750e-02,
          5.50743304e-02, 2.14406122e-02, 2.76350025e-02, 2.16992870e-02,
          1.56327207e-02, 5.37903830e-02, 6.80755451e-02, 1.01890534e-01,
          9.62871015e-02, 1.21349715e-01, 1.21043772e-01, 1.19273968e-01,
          1.17198959e-01, 1.00725509e-01, 8.98356214e-02, 7.74992183e-02,
          7.59435147e-02, 7.30654672e-02, 1.03747763e-01, 6.38766065e-02,
          7.97625557e-02, 1.12859316e-01, 6.99181333e-02, 3.97114642e-02,
          2.51733791e-02, 3.48371975e-02, 9.50202625e-03, 1.04802689e-02,
          4.99547869e-02, 5.20003140e-02, 9.01349187e-02, 7.83850029e-02,
          9.27909762e-02, 7.46397376e-02, 1.07515104e-01, 1.03979021e-01,
          6.95891157e-02, 1.16126187e-01, 1.23512365e-01, 1.65658504e-01,
          1.68949738e-01, 1.11885764e-01, 1.05784990e-01, 8.19985643e-02,
          8.63675028e-02, 4.26330417e-02, 6.81832880e-02, 5.70633449e-02,
          1.15737058e-01, 8.71761367e-02, 5.49735501e-02, 3.79379131e-02,
          6.20407462e-02, 9.91481468e-02, 8.52169245e-02, 1.19862437e-01,
          1.11022584e-01, 5.46092391e-02, 6.44820482e-02, 5.62967025e-02,
          1.10801548e-01, 8.85277539e-02, 9.53565836e-02, 5.60465232e-02,
          9.77571011e-02, 7.90856481e-02, 8.09287503e-02, 8.92246589e-02,
          7.31728598e-02, 8.97728577e-02, 7.24239498e-02, 5.92823103e-02,
          4.68086787e-02, 2.24638693e-02, 3.58668156e-02, 2.09764894e-02,
          3.91969681e-02, 5.02753519e-02, 6.58019185e-02, 1.31184250e-01,
          1.11134410e-01, 8.98140445e-02, 1.08569175e-01, 9.40986723e-02,
          9.48382095e-02, 7.20962882e-02, 4.46278527e-02, 4.89141345e-02,
          7.89832696e-02, 7.16760457e-02, 4.54209372e-02, 5.64690679e-02,
          5.56585677e-02, 4.78765145e-02, 6.21847808e-02, 4.76195626e-02 ]
      - [ 9.69214365e-02, 5.70394136e-02, 6.82465285e-02, 7.36897662e-02,
          7.45254904e-02, 7.54891261e-02, 6.55552819e-02, 9.13606212e-02,
          1.51664600e-01, 1.32539928e-01, 1.43912122e-01, 9.50792581e-02,
          8.56650770e-02, 8.37321058e-02, 5.73713034e-02, 1.63979083e-01,
          2.07641780e-01, 1.32400438e-01, 8.00060257e-02, 1.00793935e-01,
          8.76634419e-02, 1.06085226e-01, 7.16856718e-02, 6.67404830e-02,
          5.00061437e-02, 6.83425069e-02, 1.24948464e-01, 9.94266719e-02,
          6.80456012e-02, 6.02640696e-02, 7.53746629e-02, 8.86381939e-02,
          7.87858516e-02, 3.06486785e-02, 7.25549506e-03, 1.43371895e-02,
          0., 1.24323312e-02, 4.90026549e-02, 3.12204473e-02,
          9.88455564e-02, 1.23847984e-01, 1.19684383e-01, 1.34198412e-01,
          9.45037454e-02, 1.01329707e-01, 1.16643146e-01, 1.30419180e-01,
          1.39819995e-01, 8.60741213e-02, 7.47394264e-02, 8.03345889e-02,
          8.84437338e-02, 1.59640804e-01, 1.43088609e-01, 8.04722905e-02,
          4.93554734e-02, 6.02230206e-02, 5.48456684e-02, 5.98104857e-02,
          4.88565639e-02, 7.97853991e-02, 9.89366323e-02, 6.96698725e-02,
          7.77295232e-02, 7.31018558e-02, 4.55758795e-02, 9.53521207e-02,
          1.03357933e-01, 7.55563751e-02, 7.53661171e-02, 8.36998522e-02,
          9.99178663e-02, 9.84107479e-02, 1.04761660e-01, 1.02977306e-01,
          6.18334860e-02, 5.48801273e-02, 5.53801171e-02, 8.77288654e-02,
          1.46662235e-01, 8.84755403e-02, 6.63074777e-02, 6.23298064e-02,
          5.80614582e-02, 1.06678993e-01, 1.47382632e-01, 1.56728953e-01,
          1.16270691e-01, 6.20544851e-02, 4.91009690e-02, 1.79648735e-02,
          3.71527858e-02, 5.29943928e-02, 7.10788071e-02, 6.96181357e-02,
          1.04666866e-01, 1.19319402e-01, 7.26253837e-02, 5.39824404e-02,
          5.24183027e-02, 4.39074710e-02, 4.71788943e-02, 7.66002014e-02,
          6.68922737e-02, 5.33203296e-02, 3.45063694e-02, 3.46516892e-02,
          2.67770346e-02, 2.19615102e-02, 3.42955962e-02, 3.81658636e-02,
          1.75042972e-01, 1.41054556e-01, 1.51805356e-01, 1.04046091e-01,
          8.43817443e-02, 5.88588528e-02, 4.07423638e-02, 3.39180492e-02,
          5.90390563e-02, 4.86005917e-02, 5.06589003e-02, 2.62454078e-02,
          5.14912717e-02, 6.07049353e-02, 6.12659194e-02, 6.93543255e-02 ]
      - [ 1.38146147e-01, 8.02419111e-02, 9.18979496e-02, 6.21209517e-02,
          9.10344794e-02, 1.07135892e-01, 1.11268893e-01, 1.10786811e-01,
          8.58700573e-02, 1.06588580e-01, 7.82843977e-02, 1.13731459e-01,
          1.40762821e-01, 1.22435875e-01, 8.75312686e-02, 6.94722310e-02,
          1.06352493e-01, 8.03608745e-02, 1.00305296e-01, 7.04505593e-02,
          3.61451358e-02, 5.46803623e-02, 7.51620531e-02, 1.11522295e-01,
          1.40995398e-01, 1.13497950e-01, 5.46389632e-02, 6.79143891e-02,
          4.19304781e-02, 4.93127741e-02, 6.06888309e-02, 5.56212813e-02,
          1.68310553e-01, 1.37000367e-01, 1.06889568e-01, 4.17528935e-02,
          4.79315408e-02, 3.57356779e-02, 2.79387627e-02, 4.69799414e-02,
          4.41099480e-02, 5.52120283e-02, 6.51095957e-02, 4.30577919e-02,
          7.26255327e-02, 1.02365017e-01, 9.56270024e-02, 1.05505690e-01,
          1.43975481e-01, 5.80075979e-02, 4.99606021e-02, 7.22315162e-02,
          1.22650124e-01, 4.19116393e-02, 4.33082804e-02, 6.29955083e-02,
          1.35449350e-01, 4.79717329e-02, 7.16862977e-02, 6.49144724e-02,
          1.05532110e-01, 8.80018920e-02, 1.73952162e-01, 1.88567042e-01,
          6.35659546e-02, 4.81529534e-02, 5.78630082e-02, 6.45515472e-02,
          7.72929117e-02, 8.38249475e-02, 9.20104906e-02, 9.27926227e-02,
          4.82880287e-02, 5.88245243e-02, 4.88361083e-02, 4.74812426e-02,
          9.70708728e-02, 1.04895458e-01, 1.79839358e-01, 2.06705093e-01,
          1.33707076e-01, 8.43428373e-02, 8.65642875e-02, 1.02690279e-01,
          3.59701626e-02, 3.78645435e-02, 2.71096975e-02, 2.36184243e-02,
          4.30732407e-02, 3.35705020e-02, 5.53439893e-02, 9.23334137e-02,
          6.14404343e-02, 5.65966330e-02, 4.88318354e-02, 6.16951324e-02,
          9.45229977e-02, 8.89070928e-02, 6.84262812e-02, 6.85653389e-02,
          4.51367237e-02, 6.24072254e-02, 6.52936772e-02, 5.74393906e-02,
          1.18637726e-01, 9.19951797e-02, 7.71581903e-02, 7.14847594e-02,
          8.44245851e-02, 8.75905231e-02, 1.08699568e-01, 9.91133898e-02,
          1.38143361e-01, 1.32864937e-01, 1.60357788e-01, 1.07603699e-01,
          7.83023164e-02, 7.89861679e-02, 5.12116104e-02, 4.83788364e-02,
          5.68222292e-02, 4.36876751e-02, 3.53503041e-02, 2.46655401e-02,
          3.46782282e-02, 3.45555022e-02, 3.53099518e-02, 8.14731047e-02 ]
      - [ 1.18596323e-01, 8.69886950e-02, 8.81629735e-02, 7.72284865e-02,
          8.18483755e-02, 1.00441530e-01, 1.28656521e-01, 1.18970327e-01,
          1.11734778e-01, 9.52381939e-02, 9.57274511e-02, 1.26296088e-01,
          1.38102636e-01, 1.02029897e-01, 6.14648089e-02, 6.97914809e-02,
          1.08783990e-01, 7.38594010e-02, 8.11393559e-02, 9.23831612e-02,
          3.68712507e-02, 3.32582220e-02, 5.66939339e-02, 8.53110179e-02,
          1.26275405e-01, 8.22893158e-02, 3.37939449e-02, 5.39696328e-02,
          6.42156675e-02, 5.13340533e-02, 5.35628274e-02, 5.69917001e-02,
          1.30257875e-01, 9.92996022e-02, 1.12318449e-01, 9.00987387e-02,
          2.10315436e-02, 2.77022682e-02, 4.81072180e-02, 5.05691469e-02,
          7.22068399e-02, 7.93135613e-02, 5.79116829e-02, 4.48069274e-02,
          1.09311454e-01, 1.09815143e-01, 9.94006172e-02, 8.97411257e-02,
          1.03671402e-01, 7.02731311e-02, 4.16499190e-02, 2.51160059e-02,
          4.95310836e-02, 9.20297056e-02, 3.09951976e-02, 6.97412416e-02,
          1.26969934e-01, 9.13307667e-02, 7.54588619e-02, 1.58785313e-01,
          1.39194265e-01, 1.18501820e-01, 1.38028502e-01, 1.80738062e-01,
          7.02171251e-02, 7.65414611e-02, 3.70737202e-02, 5.91387562e-02,
          5.87188713e-02, 9.65756476e-02, 1.01787686e-01, 9.60545912e-02,
          6.91365153e-02, 6.59125149e-02, 6.07894287e-02, 7.34598413e-02,
          8.99488628e-02, 1.25034451e-01, 1.76490426e-01, 1.68006077e-01,
          1.13704622e-01, 9.21678022e-02, 8.89133960e-02, 1.22246265e-01,
          8.09362307e-02, 7.70210475e-02, 4.92565706e-02, 4.39388081e-02,
          3.38151976e-02, 4.59731482e-02, 8.43787640e-02, 8.42948779e-02,
          6.24655522e-02, 5.28223775e-02, 4.67199087e-02, 5.87074757e-02,
          6.95033297e-02, 7.57207498e-02, 8.61999393e-02, 6.69006854e-02,
          2.02825759e-02, 5.81487715e-02, 8.05388018e-02, 9.09356251e-02,
          1.13421351e-01, 1.22865595e-01, 7.03512430e-02, 8.44169781e-02,
          9.33295637e-02, 8.36063251e-02, 9.03500393e-02, 8.59002471e-02,
          1.23506561e-01, 1.19005986e-01, 1.43250629e-01, 9.36728567e-02,
          1.11778475e-01, 9.88128483e-02, 7.13126957e-02, 5.51740229e-02,
          7.93523118e-02, 4.94540259e-02, 3.93942222e-02, 3.04247402e-02,
          2.64695063e-02, 2.73355357e-02, 3.11525837e-02, 6.54074326e-02 ]
      - [ 6.53670877e-02, 5.59906922e-02, 8.25770274e-02, 7.29751065e-02,
          7.18177184e-02, 9.14793313e-02, 1.40333965e-01, 8.45340341e-02,
          1.32648021e-01, 1.90282777e-01, 1.41455263e-01, 1.21423073e-01,
          8.98445100e-02, 6.17754124e-02, 7.10873529e-02, 6.10532351e-02,
          1.26109049e-01, 6.82059452e-02, 6.03839681e-02, 5.70638515e-02,
          9.83873084e-02, 1.41934365e-01, 1.16866142e-01, 9.07445550e-02,
          1.37528017e-01, 7.61719123e-02, 5.82213141e-02, 4.97878008e-02,
          4.88798730e-02, 3.31293233e-02, 2.71332003e-02, 5.44929802e-02,
          4.19294387e-02, 3.38629074e-02, 4.67326976e-02, 3.22879329e-02,
          2.86344551e-02, 4.68643345e-02, 4.92103025e-02, 8.64285678e-02,
          8.88491645e-02, 8.04180428e-02, 5.77790327e-02, 6.20472431e-02,
          6.33161590e-02, 7.71571994e-02, 8.22233409e-02, 8.78807753e-02,
          1.33637756e-01, 8.55208188e-02, 8.63917321e-02, 4.27720770e-02,
          5.85533231e-02, 5.72158061e-02, 1.26535043e-01, 9.99237671e-02,
          1.05217576e-01, 1.10311963e-01, 8.30810815e-02, 1.34411938e-02,
          1.84360947e-02, 1.37632936e-02, 1.69161335e-02, 1.46096610e-02,
          1.08190551e-01, 1.15080565e-01, 6.59082830e-02, 8.69953185e-02,
          7.49677271e-02, 9.44617614e-02, 8.49372223e-02, 5.81949092e-02,
          1.09810516e-01, 4.93590571e-02, 4.80333231e-02, 4.89095189e-02,
          4.49275635e-02, 1.11317210e-01, 2.19679892e-01, 1.57638147e-01,
          1.16226621e-01, 5.91926239e-02, 7.19984919e-02, 7.01468587e-02,
          1.15260266e-01, 1.28761753e-01, 9.65726599e-02, 1.07849307e-01,
          9.96872261e-02, 4.75005358e-02, 5.16438298e-02, 2.15144623e-02,
          5.05322628e-02, 4.49913368e-02, 5.81992269e-02, 5.80103248e-02,
          1.79516837e-01, 1.99839398e-01, 1.72392458e-01, 4.45423089e-02,
          1.91241484e-02, 2.46904604e-02, 4.43196520e-02, 5.07175252e-02,
          1.00865118e-01, 1.06515907e-01, 7.95451105e-02, 8.14322829e-02,
          7.60002062e-02, 7.69900382e-02, 7.92259872e-02, 8.07257518e-02,
          1.16303526e-01, 9.51862633e-02, 1.22827992e-01, 1.03726052e-01,
          1.22765675e-01, 1.20182827e-01, 6.90497309e-02, 4.75163832e-02,
          4.58942093e-02, 3.82732600e-02, 2.73034144e-02, 2.03285925e-02,
          8.77094045e-02, 1.74049642e-02, 4.57891040e-02, 9.43117291e-02 ]
      - [ 1.02509648e-01, 6.94004372e-02, 7.71085992e-02, 6.98388964e-02,
          5.93573265e-02, 8.14931318e-02, 8.91301781e-02, 1.33338332e-01,
          1.78131387e-01, 1.57089636e-01, 1.14664920e-01, 8.39890167e-02,
          1.18915878e-01, 6.65943027e-02, 8.33888128e-02, 5.56990020e-02,
          8.48083943e-02, 7.16065541e-02, 9.14707854e-02, 9.10279676e-02,
          1.30157188e-01, 1.67743698e-01, 1.54169708e-01, 1.54455781e-01,
          1.57940224e-01, 7.50435069e-02, 9.66517851e-02, 9.13802460e-02,
          1.05848372e-01, 8.63116086e-02, 6.37436956e-02, 8.92238468e-02,
          7.02518001e-02, 4.24010009e-02, 7.05567971e-02, 4.81803045e-02,
          7.02178776e-02, 6.55037314e-02, 7.58680254e-02, 8.99269432e-02,
          1.54610157e-01, 1.33332923e-01, 8.14632177e-02, 5.43113276e-02,
          8.32232758e-02, 6.83771446e-02, 5.60268462e-02, 4.95000221e-02,
          5.54625057e-02, 3.47357467e-02, 3.14535089e-02, 4.82283980e-02,
          3.93430144e-02, 5.84060736e-02, 6.03900626e-02, 8.54530632e-02,
          1.23584561e-01, 1.22416832e-01, 8.39281902e-02, 4.60659750e-02,
          7.28609264e-02, 7.57880434e-02, 9.17437002e-02, 8.86545181e-02,
          6.29270896e-02, 5.40262572e-02, 5.27748242e-02, 3.68537195e-02,
          7.92981833e-02, 1.13455258e-01, 8.80996510e-02, 1.46566942e-01,
          1.75786823e-01, 1.79096982e-01, 1.51025906e-01, 1.16759516e-01,
          1.21112727e-01, 7.42543340e-02, 6.46622181e-02, 5.93258850e-02,
          6.78780302e-02, 3.67759168e-02, 3.20489891e-02, 3.14280167e-02,
          5.37443496e-02, 6.23118319e-02, 1.19251445e-01, 1.32273689e-01,
          1.84946224e-01, 2.05670953e-01, 1.35136962e-01, 1.19629048e-01,
          4.87336479e-02, 5.74952997e-02, 5.16188070e-02, 3.98547165e-02,
          3.04330327e-02, 7.23041361e-03, 0., 3.41905141e-03,
          1.23457611e-02, 0., 0., 0., 9.95952822e-03, 5.11267455e-03,
          1.10474564e-02, 2.47209501e-02, 3.34649682e-02, 6.40812963e-02,
          7.36283958e-02, 9.68641564e-02, 1.26387268e-01, 1.25426620e-01,
          9.25647989e-02, 7.13916048e-02, 4.37969714e-02, 4.73273955e-02,
          4.56501842e-02, 3.67845967e-02, 5.05237132e-02, 4.42769527e-02,
          4.06462476e-02, 2.99373865e-02, 4.26051766e-02, 1.43978382e-02,
          0., 0. ]
      - [ 9.79651362e-02, 7.41179436e-02, 6.17912114e-02, 8.71014595e-02,
          8.04842189e-02, 1.15063570e-01, 1.34316519e-01, 1.26924902e-01,
          1.29902020e-01, 1.28623649e-01, 1.39010534e-01, 6.85139894e-02,
          9.39532667e-02, 6.57828897e-02, 1.20272465e-01, 1.41757056e-01,
          1.79707542e-01, 1.21182457e-01, 1.05637863e-01, 1.13718770e-01,
          9.19661969e-02, 1.34881333e-01, 7.34175965e-02, 9.09568220e-02,
          8.05538073e-02, 5.30077703e-02, 7.53931254e-02, 5.71196489e-02,
          9.53342468e-02, 7.87214935e-02, 9.55328792e-02, 6.85689375e-02,
          3.58327888e-02, 3.34570855e-02, 2.52484400e-02, 2.02224981e-02,
          5.05627841e-02, 3.98705676e-02, 7.80792832e-02, 6.91374764e-02,
          8.49339440e-02, 5.34938574e-02, 6.49581701e-02, 5.51533513e-02,
          7.04983622e-02, 7.45199770e-02, 8.34444985e-02, 1.18242227e-01,
          1.38125196e-01, 7.27117881e-02, 5.59190661e-02, 7.33429641e-02,
          1.05527267e-01, 1.07202910e-01, 7.10525811e-02, 5.82531355e-02,
          8.70067179e-02, 9.53339189e-02, 5.31320237e-02, 4.52770703e-02,
          4.38462496e-02, 6.82366565e-02, 7.66853914e-02, 3.55121382e-02,
          1.14503965e-01, 7.56690949e-02, 5.56074902e-02, 8.32279995e-02,
          8.42797384e-02, 9.54553559e-02, 7.83499256e-02, 5.35748638e-02,
          9.78127792e-02, 1.10834889e-01, 1.06169648e-01, 9.85127613e-02,
          1.21176101e-01, 1.05063006e-01, 1.52217209e-01, 1.94683909e-01,
          1.50445804e-01, 6.61334991e-02, 8.96098688e-02, 8.46335366e-02,
          8.00383911e-02, 8.63828510e-02, 3.36083584e-02, 7.07687363e-02,
          6.27326071e-02, 5.30901216e-02, 5.21771908e-02, 4.82682846e-02,
          6.62584305e-02, 7.88154826e-02, 9.94918719e-02, 1.13947749e-01,
          5.21147735e-02, 5.02200499e-02, 4.73029763e-02, 4.94893305e-02,
          3.81367691e-02, 4.36070040e-02, 1.60134677e-02, 5.83031476e-02,
          8.37363079e-02, 9.23788324e-02, 5.63890748e-02, 6.00775257e-02,
          7.44458809e-02, 8.27696919e-02, 6.60977364e-02, 5.90846986e-02,
          1.35219693e-01, 1.23585179e-01, 1.23572260e-01, 1.28987014e-01,
          1.43773153e-01, 1.28225252e-01, 9.92643386e-02, 3.88619229e-02,
          7.23462924e-02, 5.30727170e-02, 4.61998396e-02, 6.09147213e-02,
          5.97441308e-02, 5.26380055e-02, 6.03158325e-02, 2.70156059e-02 ]
      - [ 7.59912729e-02, 6.72834590e-02, 7.17909560e-02, 7.51357824e-02,
          9.54469070e-02, 7.84795135e-02, 1.10286407e-01, 9.92690399e-02,
          1.70848593e-01, 1.29604474e-01, 1.57425284e-01, 1.26898870e-01,
          1.15159109e-01, 8.71699825e-02, 7.12267309e-02, 7.81254396e-02,
          1.04121387e-01, 6.99941963e-02, 7.05388859e-02, 9.32439491e-02,
          1.22915700e-01, 1.46939620e-01, 1.17800072e-01, 1.19978234e-01,
          1.09243006e-01, 7.99715891e-02, 6.68011010e-02, 5.02832532e-02,
          3.79985310e-02, 4.94199283e-02, 5.47413602e-02, 5.31956255e-02,
          4.50877324e-02, 9.06547252e-03, 1.21988449e-02, 3.30746472e-02,
          3.45601030e-02, 3.53242382e-02, 5.75026795e-02, 7.21921474e-02,
          1.07243478e-01, 8.37342590e-02, 4.19325493e-02, 6.65762573e-02,
          5.35062328e-02, 7.25249127e-02, 1.06317431e-01, 1.07219666e-01,
          1.20975882e-01, 8.83095711e-02, 7.58622289e-02, 5.40235564e-02,
          5.74265160e-02, 8.66825581e-02, 1.20151103e-01, 9.28454027e-02,
          1.06748737e-01, 1.04493544e-01, 5.18774055e-02, 0.,
          1.23957936e-02, 1.03167621e-02, 1.16910096e-02, 1.76635757e-02,
          8.23323205e-02, 7.02319294e-02, 6.43070042e-02, 6.21654876e-02,
          7.98904225e-02, 6.75958544e-02, 5.23711555e-02, 6.90940022e-02,
          6.87929466e-02, 8.51161927e-02, 7.73831829e-02, 6.53938651e-02,
          8.34337175e-02, 1.04835577e-01, 1.91633329e-01, 1.73622534e-01,
          1.15471423e-01, 9.48643088e-02, 8.98184180e-02, 9.69871953e-02,
          1.13441408e-01, 9.92346033e-02, 1.16487406e-01, 1.35411665e-01,
          1.25334993e-01, 5.35340682e-02, 3.10989562e-02, 3.78966406e-02,
          4.91676144e-02, 3.98444831e-02, 4.05032523e-02, 5.36453128e-02,
          1.40519828e-01, 1.79972798e-01, 1.47469848e-01, 1.14335716e-01,
          5.42842448e-02, 3.96881923e-02, 2.77201161e-02, 4.13668714e-02,
          8.23213756e-02, 6.45374656e-02, 9.17488784e-02, 8.33595768e-02,
          9.87521932e-02, 7.31021389e-02, 1.01775356e-01, 1.10711388e-01,
          1.43318042e-01, 1.28369778e-01, 1.28891021e-01, 1.03337117e-01,
          1.07602768e-01, 8.87008756e-02, 6.70274347e-02, 3.35749499e-02,
          2.71687564e-02, 3.06564551e-02, 3.12210191e-02, 3.03424392e-02,
          1.75002664e-02, 4.59388308e-02, 6.94962740e-02, 7.28650168e-02 ]
      - [ 8.68766904e-02, 3.46674919e-02, 1.07607521e-01, 8.28945860e-02,
          9.29900706e-02, 5.52880205e-02, 9.42310840e-02, 1.31940112e-01,
          1.41552091e-01, 1.06526189e-01, 5.75069971e-02, 9.90638882e-02,
          7.34435022e-02, 1.02594838e-01, 1.17353395e-01, 1.01661891e-01,
          1.62403852e-01, 1.62292331e-01, 1.30582064e-01, 1.44262791e-01,
          1.24514587e-01, 1.50013641e-01, 1.22036129e-01, 8.76140073e-02,
          7.15337172e-02, 1.36433452e-01, 1.20124705e-01, 7.92386606e-02,
          5.32814264e-02, 4.47644405e-02, 5.42004965e-02, 7.37538412e-02,
          5.05051874e-02, 2.54060961e-02, 3.61492373e-02, 1.32931415e-02,
          4.26153876e-02, 6.02280051e-02, 9.38828215e-02, 8.43832791e-02,
          1.47345230e-01, 1.05881035e-01, 1.14958256e-01, 1.17507786e-01,
          1.02624997e-01, 9.78952199e-02, 9.29470956e-02, 8.38131085e-02,
          9.75498110e-02, 5.49339093e-02, 9.48121473e-02, 8.42104703e-02,
          8.42519104e-02, 1.02723725e-01, 7.15798885e-02, 5.47931679e-02,
          4.06545214e-02, 1.64604876e-02, 7.70199765e-03, 1.99296288e-02,
          3.74511555e-02, 5.74326701e-02, 5.43667041e-02, 9.93711799e-02,
          6.40617013e-02, 8.77641514e-02, 1.13817103e-01, 1.03904106e-01,
          5.99470623e-02, 1.08430617e-01, 1.22439139e-01, 1.75929874e-01,
          1.65970549e-01, 1.15506642e-01, 1.04016021e-01, 8.94849598e-02,
          7.67430663e-02, 6.28286228e-02, 6.73851669e-02, 5.83497100e-02,
          1.18194766e-01, 6.38535917e-02, 5.25416285e-02, 4.93011922e-02,
          5.01087382e-02, 9.70991328e-02, 9.57524329e-02, 1.17095031e-01,
          1.27746716e-01, 8.57404917e-02, 5.24105020e-02, 5.62211201e-02,
          1.07319526e-01, 9.96102840e-02, 8.16778690e-02, 6.09356202e-02,
          6.07570820e-02, 6.43708333e-02, 5.56627773e-02, 6.58543110e-02,
          8.57985318e-02, 6.47915974e-02, 7.71011114e-02, 5.64933941e-02,
          4.84073944e-02, 4.76876348e-02, 3.67297865e-02, 2.58896314e-02,
          2.74136215e-02, 3.51665244e-02, 3.94141562e-02, 1.06636062e-01,
          1.30007565e-01, 8.82525593e-02, 9.90306884e-02, 8.19730461e-02,
          8.06068182e-02, 4.89434563e-02, 5.87681346e-02, 4.58675399e-02,
          7.61052296e-02, 1.08698413e-01, 5.40140457e-02, 6.43126816e-02,
          5.55729270e-02, 2.86928173e-02, 6.95982128e-02, 7.04999790e-02 ]
      - [ 6.12193085e-02, 4.55043539e-02, 5.74697703e-02, 7.18696713e-02,
          2.93560866e-02, 1.52238220e-01, 1.44805789e-01, 8.36103782e-02,
          1.26031771e-01, 9.43236724e-02, 1.04963213e-01, 1.25505909e-01,
          1.03475928e-01, 5.94728366e-02, 5.51415719e-02, 6.16579503e-02,
          1.01354048e-01, 1.09917380e-01, 1.04452789e-01, 8.18493739e-02,
          7.25995004e-02, 9.63075832e-02, 1.13425598e-01, 1.75750792e-01,
          1.44857720e-01, 2.82582715e-02, 2.27848385e-02, 2.99816597e-02,
          2.15543397e-02, 1.68461949e-02, 3.20277773e-02, 2.21390687e-02,
          4.93877493e-02, 1.98160522e-02, 2.63619460e-02, 4.89406995e-02,
          4.01347019e-02, 5.46107404e-02, 7.76496679e-02, 1.00316077e-01,
          8.52259323e-02, 6.09168299e-02, 5.84194176e-02, 3.40480097e-02,
          5.67402467e-02, 6.00685477e-02, 8.18323418e-02, 9.30824503e-02,
          1.38735920e-01, 1.06759630e-01, 1.06855586e-01, 1.21369138e-01,
          1.25553668e-01, 9.67999473e-02, 7.80546516e-02, 9.34939161e-02,
          1.23352937e-01, 9.36765075e-02, 5.21027409e-02, 2.87686232e-02,
          3.05275135e-02, 1.80665404e-02, 8.86308309e-03, 2.91023459e-02,
          7.92153999e-02, 2.22165287e-01, 1.49131164e-01, 8.62097070e-02,
          1.03303298e-01, 1.07567519e-01, 1.07768849e-01, 8.33890364e-02,
          7.51041323e-02, 5.23799360e-02, 3.25171202e-02, 6.59693107e-02,
          7.86134601e-02, 1.47229701e-01, 1.71322644e-01, 1.50520205e-01,
          1.13289699e-01, 6.80930987e-02, 7.80627578e-02, 6.17020354e-02,
          7.03029558e-02, 1.03947021e-01, 9.19567645e-02, 6.25882745e-02,
          1.20077789e-01, 7.73685649e-02, 7.50158876e-02, 5.75200059e-02,
          7.16367960e-02, 3.53906043e-02, 5.52817956e-02, 4.71634753e-02,
          8.00862759e-02, 6.36123419e-02, 8.32298249e-02, 1.70000568e-02,
          0., 4.13527936e-02, 3.87484394e-02, 4.68243547e-02,
          5.47994785e-02, 5.77034391e-02, 6.97194114e-02, 6.01680726e-02,
          6.15764111e-02, 4.71018553e-02, 6.05549216e-02, 5.55826053e-02,
          5.90677895e-02, 9.05831307e-02, 1.02246769e-01, 9.18192863e-02,
          1.53273836e-01, 1.26995459e-01, 1.13985136e-01, 1.15568109e-01,
          1.04788989e-01, 6.06570356e-02, 1.09745376e-01, 9.02463049e-02,
          8.10381621e-02, 1.71110332e-01, 9.23304409e-02, 6.18781224e-02 ]
      - [ 1.04065500e-01, 1.21124394e-01, 8.84440094e-02, 1.03133664e-01,
          1.14344753e-01, 1.45737737e-01, 1.10685311e-01, 1.13913290e-01,
          1.43640101e-01, 1.53626442e-01, 1.00445047e-01, 7.20256940e-02,
          7.26812631e-02, 9.23007205e-02, 1.19643591e-01, 1.46095738e-01,
          1.78901434e-01, 1.36765629e-01, 9.74746123e-02, 8.73817429e-02,
          1.21985413e-01, 1.30490571e-01, 9.54456478e-02, 4.44000661e-02,
          7.66724795e-02, 4.55927290e-02, 5.17892502e-02, 7.08320513e-02,
          6.93764985e-02, 5.84870800e-02, 6.75431788e-02, 4.74088565e-02,
          4.12719958e-02, 3.01264040e-02, 2.99523603e-02, 2.51100902e-02,
          4.13181596e-02, 6.72778189e-02, 8.57455954e-02, 6.75324202e-02,
          6.42465353e-02, 4.68114279e-02, 6.91992715e-02, 4.92271297e-02,
          4.76086363e-02, 7.56717101e-02, 8.71466175e-02, 1.31756499e-01,
          1.09048963e-01, 8.72678906e-02, 6.49425834e-02, 9.56948027e-02,
          1.09140307e-01, 9.31464136e-02, 8.42962340e-02, 6.30194023e-02,
          9.88280624e-02, 6.04389049e-02, 5.96760549e-02, 4.78336439e-02,
          7.08346143e-02, 7.03296289e-02, 6.64229542e-02, 5.30785471e-02,
          1.15152277e-01, 5.31600155e-02, 6.09004423e-02, 7.98268467e-02,
          9.28735435e-02, 8.92787799e-02, 7.72757232e-02, 7.70909712e-02,
          1.14296131e-01, 1.10654518e-01, 1.03072494e-01, 9.58493873e-02,
          1.29940167e-01, 1.30717412e-01, 1.73382059e-01, 1.46096125e-01,
          1.18478388e-01, 6.69289902e-02, 7.14613795e-02, 7.01106116e-02,
          6.55032024e-02, 5.71878515e-02, 6.89333007e-02, 6.81880936e-02,
          6.51829019e-02, 4.72800024e-02, 7.23498240e-02, 6.07672781e-02,
          1.01399906e-01, 9.74905565e-02, 1.02509700e-01, 9.83139202e-02,
          5.68004362e-02, 4.23239879e-02, 3.63538340e-02, 4.89040054e-02,
          3.52022797e-02, 3.79664563e-02, 4.61190827e-02, 7.37672001e-02,
          9.24666598e-02, 7.78741091e-02, 7.65267015e-02, 4.90085073e-02,
          8.98704305e-02, 6.09625652e-02, 7.66839236e-02, 6.63077980e-02,
          1.07624061e-01, 1.08991846e-01, 1.12044632e-01, 1.24871694e-01,
          1.37906805e-01, 1.38291329e-01, 1.11332275e-01, 6.93140477e-02,
          7.18777254e-02, 4.67613451e-02, 4.33965847e-02, 6.57834858e-02,
          3.29193175e-02, 4.31639180e-02, 4.74850945e-02, 2.30466314e-02 ]
      - [ 9.99865085e-02, 7.28950575e-02, 9.43225175e-02, 7.95029923e-02,
          5.17388023e-02, 5.04656211e-02, 5.84134795e-02, 1.59086809e-01,
          1.44935086e-01, 1.34132907e-01, 8.48617703e-02, 1.08249187e-01,
          8.72284025e-02, 8.74810815e-02, 1.10852182e-01, 1.46477744e-01,
          1.80486545e-01, 1.49282858e-01, 1.04680575e-01, 1.27326116e-01,
          1.36543304e-01, 1.45245075e-01, 9.53150615e-02, 6.54631853e-02,
          7.53641203e-02, 1.18248209e-01, 1.11022919e-01, 6.93808794e-02,
          5.20936847e-02, 5.66981882e-02, 8.32746625e-02, 5.08364402e-02,
          3.17726545e-02, 7.08603067e-03, 5.95861766e-03, 8.91757756e-03,
          0., 4.51797135e-02, 6.15776628e-02, 1.02540515e-01,
          1.28529936e-01, 1.31727383e-01, 9.24129337e-02, 8.02970082e-02,
          1.00282140e-01, 1.01505235e-01, 9.24632177e-02, 9.52624604e-02,
          8.94463062e-02, 7.89132342e-02, 8.95441398e-02, 1.10753745e-01,
          8.63670260e-02, 9.76719856e-02, 7.28372112e-02, 2.28780545e-02,
          3.33586633e-02, 1.80777088e-02, 1.08306631e-02, 3.22442465e-02,
          3.84259075e-02, 4.29228656e-02, 8.12707841e-02, 8.52602869e-02,
          1.00061715e-01, 9.78995413e-02, 1.13150373e-01, 8.88206586e-02,
          8.23234543e-02, 9.92539302e-02, 1.15854621e-01, 1.50898352e-01,
          1.42410800e-01, 1.26797110e-01, 9.95388404e-02, 9.57459882e-02,
          6.74525350e-02, 7.79714212e-02, 7.23211616e-02, 6.91247508e-02,
          1.39450043e-01, 8.02485645e-02, 5.53438067e-02, 5.83458059e-02,
          6.31402656e-02, 1.02065407e-01, 1.19466707e-01, 9.22665372e-02,
          9.10538808e-02, 5.34788966e-02, 6.33268654e-02, 6.76233694e-02,
          8.88756216e-02, 9.74467918e-02, 7.93416798e-02, 7.88935721e-02,
          5.76796494e-02, 8.04786310e-02, 5.13868146e-02, 7.37539604e-02,
          7.68841878e-02, 5.76157495e-02, 9.23381001e-02, 4.74961065e-02,
          6.22817166e-02, 5.30794077e-02, 6.47419840e-02, 3.07964180e-02,
          3.37578133e-02, 3.89517918e-02, 5.33770658e-02, 9.27648991e-02,
          1.45071223e-01, 9.24509391e-02, 1.00073405e-01, 1.07056089e-01,
          8.42613354e-02, 6.45733774e-02, 7.26582780e-02, 6.18047379e-02,
          1.00937456e-01, 8.99882913e-02, 4.68655378e-02, 5.58875687e-02,
          6.44057691e-02, 3.93747874e-02, 5.49455024e-02, 6.11474104e-02 ]
      - [ 7.58885220e-02, 4.94817421e-02, 5.10400943e-02, 3.61741334e-02,
          5.94887473e-02, 8.81541297e-02, 1.08647853e-01, 1.09339252e-01,
          1.52384549e-01, 1.32875040e-01, 7.79565498e-02, 8.15800726e-02,
          9.93864238e-02, 8.99566188e-02, 8.56792033e-02, 6.94196001e-02,
          9.18101594e-02, 1.12401091e-01, 9.83962640e-02, 1.01089358e-01,
          1.21752203e-01, 1.91848844e-01, 1.77710384e-01, 1.28215089e-01,
          1.47798881e-01, 1.12344690e-01, 7.55598545e-02, 8.24554861e-02,
          8.54247287e-02, 7.57233351e-02, 5.95492497e-02, 6.98039904e-02,
          7.75345787e-02, 7.90034235e-02, 8.38122591e-02, 9.13415924e-02,
          4.61534448e-02, 8.15837458e-02, 6.69851303e-02, 8.36807117e-02,
          1.31882563e-01, 1.51811495e-01, 1.17741928e-01, 1.23023048e-01,
          8.01452398e-02, 8.05516839e-02, 7.29219690e-02, 9.25126970e-02,
          8.17013904e-02, 5.21578863e-02, 5.08195981e-02, 5.92805408e-02,
          3.41588594e-02, 5.89480959e-02, 7.94148296e-02, 9.31749791e-02,
          1.13297082e-01, 1.02454409e-01, 9.78904143e-02, 9.37942415e-02,
          8.11447576e-02, 5.64455204e-02, 9.83434543e-02, 7.72949085e-02,
          4.85578440e-02, 3.12650092e-02, 4.85658459e-02, 3.83526646e-02,
          7.04413131e-02, 4.39310819e-02, 7.24261180e-02, 1.42900005e-01,
          1.82122335e-01, 1.94495544e-01, 1.47504255e-01, 9.79310796e-02,
          7.52934739e-02, 5.82382455e-02, 4.57937457e-02, 4.54692990e-02,
          6.81691393e-02, 3.04392558e-02, 4.37233038e-02, 7.09372461e-02,
          4.33609560e-02, 5.51707372e-02, 1.05205253e-01, 1.40367731e-01,
          2.29655907e-01, 1.76562905e-01, 1.41098514e-01, 7.68377557e-02,
          4.74579409e-02, 3.62861939e-02, 3.65227349e-02, 2.55331881e-02,
          6.92791818e-03, 0., 0., 0., 0., 0., 5.02952700e-03, 0.,
          2.14353558e-02, 2.36209035e-02, 3.25857662e-02, 1.84816103e-02,
          2.91925240e-02, 4.03576568e-02, 5.61045408e-02, 8.63563269e-02,
          1.48727283e-01, 1.22920364e-01, 1.15444928e-01, 9.98192877e-02,
          6.01719767e-02, 5.96663207e-02, 5.26502766e-02, 3.75750884e-02,
          5.66893592e-02, 3.49840745e-02, 3.72445285e-02, 2.89033968e-02,
          1.46609265e-02, 1.94927100e-02, 9.55303106e-03, 7.52089731e-03 ]
      - [ 1.01643711e-01, 5.37783206e-02, 5.59009947e-02, 8.34179372e-02,
          6.16131984e-02, 6.37471080e-02, 6.83932975e-02, 4.60535921e-02,
          1.21312253e-01, 1.16944112e-01, 1.73942730e-01, 1.00222744e-01,
          1.21208526e-01, 1.13541648e-01, 9.82725695e-02, 1.14687689e-01,
          2.01898500e-01, 2.04871818e-01, 1.09067075e-01, 6.39270842e-02,
          1.03875153e-01, 9.28048939e-02, 5.25505841e-02, 7.90435299e-02,
          5.93397506e-02, 7.64464661e-02, 1.20340921e-01, 1.40937924e-01,
          5.74266054e-02, 4.82815541e-02, 5.36749661e-02, 4.49333638e-02,
          6.39588386e-02, 2.89380886e-02, 3.64621095e-02, 1.45029556e-02,
          2.92410832e-02, 5.27943559e-02, 6.02895245e-02, 6.90378100e-02,
          7.06782043e-02, 7.70254210e-02, 1.26676068e-01, 1.05912872e-01,
          1.25137448e-01, 9.37112942e-02, 9.03096944e-02, 1.22383475e-01,
          1.91946030e-01, 1.32465020e-01, 1.02289975e-01, 6.66156709e-02,
          1.13292649e-01, 1.09746397e-01, 9.80985612e-02, 9.73298624e-02,
          1.12243794e-01, 5.03846034e-02, 4.94661182e-02, 1.89018268e-02,
          4.41552103e-02, 3.27215493e-02, 1.43839559e-02, 3.47068235e-02,
          5.66410534e-02, 4.76029664e-02, 5.31302094e-02, 9.40418914e-02,
          9.40482914e-02, 1.06298819e-01, 8.33982825e-02, 7.28897154e-02,
          9.00576413e-02, 8.81617814e-02, 1.08617596e-01, 1.11443691e-01,
          8.46684128e-02, 5.34162894e-02, 4.97366637e-02, 5.65770231e-02,
          1.03647642e-01, 9.20873284e-02, 7.69080371e-02, 7.01118633e-02,
          6.76122233e-02, 9.32077765e-02, 1.17106400e-01, 1.76520064e-01,
          1.79168701e-01, 7.38907829e-02, 3.19765136e-02, 3.45277674e-02,
          1.12463720e-02, 3.44354995e-02, 3.68625335e-02, 4.30273078e-02,
          1.18266374e-01, 1.06989339e-01, 1.00238957e-01, 6.17490821e-02,
          6.12808354e-02, 3.27612311e-02, 3.34793404e-02, 1.93506852e-02,
          2.00972017e-02, 8.94390978e-03, 1.67072807e-02, 0.,
          4.58337553e-03, 1.67530477e-02, 2.26440188e-02, 4.58151102e-02,
          1.60569414e-01, 1.83493003e-01, 1.40281081e-01, 1.45780057e-01,
          6.79781213e-02, 5.19817807e-02, 1.85397845e-02, 0.,
          4.77859750e-02, 5.08946478e-02, 4.03449349e-02, 4.89101335e-02,
          6.11311831e-02, 5.92775717e-02, 7.59271309e-02, 6.75973296e-02 ]
      - [ 6.28606156e-02, 6.83614165e-02, 7.85020068e-02, 8.02850202e-02,
          8.10442269e-02, 1.25326723e-01, 8.40526745e-02, 1.01733752e-01,
          1.68031096e-01, 1.87904149e-01, 1.62586451e-01, 8.63761008e-02,
          7.07086697e-02, 5.47848903e-02, 6.35903254e-02, 5.04157990e-02,
          1.17908321e-01, 7.06305206e-02, 6.71467185e-02, 9.71504003e-02,
          1.50071710e-01, 1.85272843e-01, 7.92661533e-02, 1.13860965e-01,
          8.23507532e-02, 5.23034148e-02, 3.80989686e-02, 2.95170732e-02,
          4.28179279e-02, 0., 2.91983467e-02, 1.81213152e-02,
          2.97885444e-02, 2.53354553e-02, 3.59144248e-02, 3.34917009e-02,
          1.34342583e-02, 4.40197773e-02, 4.78195474e-02, 7.00897053e-02,
          4.89342064e-02, 4.93669324e-02, 4.08842936e-02, 5.24147153e-02,
          6.18981756e-02, 7.64409155e-02, 8.60870332e-02, 1.05827123e-01,
          1.08980745e-01, 6.23933934e-02, 4.94606197e-02, 4.25008908e-02,
          3.15509103e-02, 6.82089850e-02, 7.25745857e-02, 9.36651006e-02,
          1.94169030e-01, 8.95231888e-02, 3.36086936e-02, 8.00842699e-03,
          1.92296468e-02, 1.62447095e-02, 2.26996429e-02, 0.,
          1.47091731e-01, 1.08607523e-01, 7.23214895e-02, 9.41214338e-02,
          8.44488665e-02, 6.52740523e-02, 6.99383095e-02, 8.78103003e-02,
          1.17241994e-01, 5.30225486e-02, 7.02063590e-02, 7.14419037e-02,
          1.70043945e-01, 1.93185836e-01, 1.06544733e-01, 9.33386534e-02,
          9.21254307e-02, 6.97906315e-02, 8.88369456e-02, 1.19131528e-01,
          1.02973007e-01, 8.46709982e-02, 8.69034380e-02, 9.33989808e-02,
          1.01782463e-01, 3.36214788e-02, 4.91885655e-02, 4.89641167e-02,
          5.69672026e-02, 5.39129488e-02, 7.13147447e-02, 1.11081593e-01,
          1.28084838e-01, 1.56104669e-01, 1.07605331e-01, 8.51086825e-02,
          6.92409948e-02, 4.37135287e-02, 5.18114530e-02, 1.00781374e-01,
          1.30406722e-01, 1.16590276e-01, 9.21280682e-02, 9.66775268e-02,
          8.36218372e-02, 9.15661529e-02, 9.11916196e-02, 9.99832526e-02,
          1.00232109e-01, 1.15987539e-01, 8.64853412e-02, 9.10669938e-02,
          1.15299441e-01, 1.50435925e-01, 1.35243043e-01, 6.69282302e-02,
          6.26235455e-02, 4.84952219e-02, 1.77061092e-02, 0.,
          2.51984410e-02, 3.21135968e-02, 2.70368382e-02, 5.20201698e-02 ]
      - [ 9.69728455e-02, 6.78081885e-02, 4.05208208e-02, 7.43332058e-02,
          7.01415166e-02, 8.45488384e-02, 1.04941830e-01, 1.11251250e-01,
          1.89333856e-01, 1.36512250e-01, 8.49562958e-02, 9.62860286e-02,
          8.81321281e-02, 5.79314567e-02, 1.15363993e-01, 1.09467760e-01,
          1.63926244e-01, 1.14457957e-01, 1.30590707e-01, 1.11125983e-01,
          1.58136934e-01, 1.42871469e-01, 1.54022098e-01, 1.23654865e-01,
          7.76987225e-02, 6.51333332e-02, 5.41428588e-02, 7.24775642e-02,
          6.24637902e-02, 7.15535209e-02, 5.04615307e-02, 7.88529068e-02,
          4.48321886e-02, 4.78719845e-02, 5.90164885e-02, 6.25103712e-02,
          6.52147382e-02, 4.49836403e-02, 6.50463849e-02, 5.01601808e-02,
          8.80672038e-02, 1.38154432e-01, 1.34283990e-01, 1.10466003e-01,
          1.21241570e-01, 1.23663224e-01, 9.86250415e-02, 7.51337409e-02,
          1.29440635e-01, 9.42300931e-02, 7.70944655e-02, 7.62159154e-02,
          8.91481787e-02, 1.13589421e-01, 8.32557380e-02, 8.36185887e-02,
          7.84866214e-02, 8.90889987e-02, 7.93856904e-02, 8.25177506e-02,
          3.91155146e-02, 4.44614738e-02, 2.17596088e-02, 2.14714315e-02,
          4.07119431e-02, 5.73956706e-02, 5.26153482e-02, 6.27627596e-02,
          6.02993555e-02, 9.42946076e-02, 8.71910602e-02, 1.24272063e-01,
          1.49039239e-01, 1.49289817e-01, 1.13387771e-01, 1.08237058e-01,
          8.88919309e-02, 6.68471158e-02, 4.30542603e-02, 3.63425799e-02,
          7.81105161e-02, 5.30614108e-02, 7.19748437e-02, 3.53797823e-02,
          6.90713823e-02, 1.08965732e-01, 1.46738708e-01, 1.59550428e-01,
          1.62167385e-01, 1.44553706e-01, 1.02228880e-01, 6.35650828e-02,
          6.29180446e-02, 4.25818861e-02, 3.85613255e-02, 2.89473012e-02,
          6.01711124e-02, 7.38763735e-02, 4.68727499e-02, 2.44438387e-02,
          1.52122816e-02, 6.57160534e-03, 0., 1.38972532e-02,
          2.23611668e-02, 2.72122435e-02, 4.05287407e-02, 3.67255323e-02,
          3.42994891e-02, 4.02842909e-02, 4.04192097e-02, 6.22706078e-02,
          1.59071758e-01, 1.30578309e-01, 1.43173739e-01, 1.15410358e-01,
          5.95966130e-02, 6.52625859e-02, 6.16966076e-02, 4.65753637e-02,
          5.62366061e-02, 2.74170358e-02, 2.82133333e-02, 2.86982339e-02,
          5.82384504e-02, 5.87461889e-02, 5.36841638e-02, 6.51641786e-02 ]
      - [ 1.00934587e-01, 7.85671398e-02, 8.06580037e-02, 9.06851739e-02,
          1.01239271e-01, 1.23744100e-01, 1.41033590e-01, 1.10096179e-01,
          1.29729196e-01, 1.22051835e-01, 1.35993510e-01, 8.84474888e-02,
          8.84744450e-02, 9.54061225e-02, 1.02144852e-01, 1.33078083e-01,
          1.88881770e-01, 1.17304176e-01, 1.27565756e-01, 1.01249352e-01,
          1.02196276e-01, 1.38681963e-01, 1.03879936e-01, 8.06539282e-02,
          7.71436766e-02, 6.82558194e-02, 5.19652441e-02, 8.21308717e-02,
          9.83481631e-02, 5.39325736e-02, 7.93492347e-02, 7.03267232e-02,
          2.67739724e-02, 2.42665093e-02, 2.50563137e-02, 4.59553115e-02,
          2.42949724e-02, 4.13153693e-02, 8.68361518e-02, 7.15713575e-02,
          6.42115474e-02, 5.80906756e-02, 6.24948181e-02, 5.45991771e-02,
          6.60320818e-02, 8.49519148e-02, 9.00257602e-02, 1.08546935e-01,
          1.39953583e-01, 5.80667406e-02, 6.58265650e-02, 6.83435798e-02,
          1.21287301e-01, 9.71564502e-02, 9.12514776e-02, 5.60710840e-02,
          8.26154649e-02, 8.37970451e-02, 6.05652966e-02, 3.89139615e-02,
          5.95521666e-02, 5.89363277e-02, 7.19694793e-02, 3.95835117e-02,
          1.11911424e-01, 7.71256611e-02, 6.63550943e-02, 7.56770819e-02,
          8.70398059e-02, 1.00452423e-01, 6.67281449e-02, 8.28257874e-02,
          9.66095328e-02, 9.73135605e-02, 1.05617255e-01, 1.10841125e-01,
          1.15911357e-01, 1.14878044e-01, 1.54287055e-01, 1.81158543e-01,
          1.26563653e-01, 5.72797284e-02, 7.57169574e-02, 1.01984903e-01,
          7.25457296e-02, 5.84899373e-02, 6.85896501e-02, 6.98263049e-02,
          5.93218133e-02, 5.28105907e-02, 4.90157232e-02, 4.80639637e-02,
          7.39830956e-02, 8.71547535e-02, 1.05300516e-01, 1.00334786e-01,
          5.02388999e-02, 4.85081263e-02, 3.84533517e-02, 4.15276736e-02,
          3.19026597e-02, 4.59411442e-02, 3.44991460e-02, 6.36016130e-02,
          9.56848264e-02, 7.11418539e-02, 6.46207333e-02, 6.13617897e-02,
          6.52909279e-02, 7.86652938e-02, 5.32210954e-02, 7.65774921e-02,
          1.21090613e-01, 1.30703419e-01, 9.97525677e-02, 1.24788687e-01,
          1.49651319e-01, 1.36804119e-01, 9.57571715e-02, 6.39848262e-02,
          7.56683499e-02, 5.91773503e-02, 4.70610112e-02, 5.42493723e-02,
          6.29859418e-02, 5.64677976e-02, 2.10718699e-02, 5.26298881e-02 ]
      - [ 8.02377090e-02, 7.88061768e-02, 8.25752392e-02, 8.72301683e-02,
          6.11803569e-02, 6.93547353e-02, 8.76149312e-02, 1.30259022e-01,
          1.40999794e-01, 1.30461574e-01, 1.07031964e-01, 8.44140574e-02,
          9.35589299e-02, 7.69456476e-02, 1.12766333e-01, 1.30683735e-01,
          1.61502272e-01, 1.11294441e-01, 1.09567910e-01, 1.15633428e-01,
          1.23427086e-01, 1.51835248e-01, 1.19966954e-01, 4.79264036e-02,
          8.18925872e-02, 1.52980417e-01, 5.01964726e-02, 3.01014427e-02,
          5.63848205e-02, 3.62351276e-02, 8.08168724e-02, 3.87785286e-02,
          2.60996409e-02, 4.04424444e-02, 0., 4.54348028e-02,
